{"learner":{"attributes":{"best_iteration":"739","best_ntree_limit":"740"},"feature_names":["cuat","SEDE","MATERIA","pa1","pa1_prom","codCarrera","extranjero","edad","prom_edad","turno","n_alum","p_ext","recurso","p_recursa","abandona1_p"],"feature_types":["c","c","c","float","float","c","c","c","float","c","int","float","int","float","float"],"gradient_booster":{"model":{"gbtree_model_param":{"num_parallel_tree":"1","num_trees":"740","size_leaf_vector":"0"},"tree_info":[0,0,0,0,0,0,0,0,0,0,0,0,0,0,0,0,0,0,0,0,0,0,0,0,0,0,0,0,0,0,0,0,0,0,0,0,0,0,0,0,0,0,0,0,0,0,0,0,0,0,0,0,0,0,0,0,0,0,0,0,0,0,0,0,0,0,0,0,0,0,0,0,0,0,0,0,0,0,0,0,0,0,0,0,0,0,0,0,0,0,0,0,0,0,0,0,0,0,0,0,0,0,0,0,0,0,0,0,0,0,0,0,0,0,0,0,0,0,0,0,0,0,0,0,0,0,0,0,0,0,0,0,0,0,0,0,0,0,0,0,0,0,0,0,0,0,0,0,0,0,0,0,0,0,0,0,0,0,0,0,0,0,0,0,0,0,0,0,0,0,0,0,0,0,0,0,0,0,0,0,0,0,0,0,0,0,0,0,0,0,0,0,0,0,0,0,0,0,0,0,0,0,0,0,0,0,0,0,0,0,0,0,0,0,0,0,0,0,0,0,0,0,0,0,0,0,0,0,0,0,0,0,0,0,0,0,0,0,0,0,0,0,0,0,0,0,0,0,0,0,0,0,0,0,0,0,0,0,0,0,0,0,0,0,0,0,0,0,0,0,0,0,0,0,0,0,0,0,0,0,0,0,0,0,0,0,0,0,0,0,0,0,0,0,0,0,0,0,0,0,0,0,0,0,0,0,0,0,0,0,0,0,0,0,0,0,0,0,0,0,0,0,0,0,0,0,0,0,0,0,0,0,0,0,0,0,0,0,0,0,0,0,0,0,0,0,0,0,0,0,0,0,0,0,0,0,0,0,0,0,0,0,0,0,0,0,0,0,0,0,0,0,0,0,0,0,0,0,0,0,0,0,0,0,0,0,0,0,0,0,0,0,0,0,0,0,0,0,0,0,0,0,0,0,0,0,0,0,0,0,0,0,0,0,0,0,0,0,0,0,0,0,0,0,0,0,0,0,0,0,0,0,0,0,0,0,0,0,0,0,0,0,0,0,0,0,0,0,0,0,0,0,0,0,0,0,0,0,0,0,0,0,0,0,0,0,0,0,0,0,0,0,0,0,0,0,0,0,0,0,0,0,0,0,0,0,0,0,0,0,0,0,0,0,0,0,0,0,0,0,0,0,0,0,0,0,0,0,0,0,0,0,0,0,0,0,0,0,0,0,0,0,0,0,0,0,0,0,0,0,0,0,0,0,0,0,0,0,0,0,0,0,0,0,0,0,0,0,0,0,0,0,0,0,0,0,0,0,0,0,0,0,0,0,0,0,0,0,0,0,0,0,0,0,0,0,0,0,0,0,0,0,0,0,0,0,0,0,0,0,0,0,0,0,0,0,0,0,0,0,0,0,0,0,0,0,0,0,0,0,0,0,0,0,0,0,0,0,0,0,0,0,0,0,0,0,0,0,0,0,0,0,0,0,0,0,0,0,0,0,0,0,0,0,0,0,0,0,0,0,0,0,0,0,0,0,0,0,0,0,0,0,0,0,0,0,0,0,0,0,0,0,0,0,0,0,0,0,0,0,0,0,0,0,0,0,0,0,0,0,0,0,0,0,0,0,0,0,0,0,0,0,0,0,0,0,0,0,0,0,0,0,0,0,0,0,0,0,0,0,0,0,0,0,0,0,0,0,0,0,0,0,0,0,0,0,0,0,0,0],"trees":[{"base_weights":[-1.6529742E0,-1.0999492E0,-1.8949287E0,-8.992916E-1,-1.349385E0,-1.6531444E0,-1.9498773E0,-6.949145E-1,-9.9443007E-1,-1.3928167E0,-1.0995007E0,-6.7474045E-2,-1.6538177E0,-8.101133E-1,-5.0135106E-1,-1.0498654E0,-6.8752825E-1,-1.5181653E0,-1.3166898E0,-1.1048974E0,5.5913985E-2],"categories":[],"categories_nodes":[],"categories_segments":[],"categories_sizes":[],"default_left":[0,0,0,0,1,1,0,1,1,1,1,0,0,0,0,0,0,0,0,0,0],"id":0,"left_children":[1,3,5,7,9,11,-1,13,15,17,19,-1,-1,-1,-1,-1,-1,-1,-1,-1,-1],"loss_changes":[2.0692617E3,2.2898291E2,1.1910156E2,4.6440918E1,1.1091309E1,1.3364258E0,0E0,1.6298462E1,2.5045288E1,1.4799805E0,2.6486816E0,0E0,0E0,0E0,0E0,0E0,0E0,0E0,0E0,0E0,0E0],"parents":[2147483647,0,0,1,1,2,2,3,3,4,4,5,5,7,7,8,8,9,9,10,10],"right_children":[2,4,6,8,10,12,-1,14,16,18,20,-1,-1,-1,-1,-1,-1,-1,-1,-1,-1],"split_conditions":[2.75E0,1.25E0,3.75E0,2.5E-1,2.5E0,5E-1,-6.924564E-2,1.5E0,2.5E0,1.0724375E-1,7.541946E-1,-2.3961936E-3,-5.8731727E-2,-2.8769407E-2,-1.780439E-2,-3.728368E-2,-2.4416067E-2,-5.391433E-2,-4.675937E-2,-3.923802E-2,1.9856633E-3],"split_indices":[3,3,3,3,7,5,0,9,7,13,13,0,0,0,0,0,0,0,0,0,0],"split_type":[0,0,0,0,0,0,0,0,0,0,0,0,0,0,0,0,0,0,0,0,0],"sum_hessian":[1.55767E4,4.7538E3,1.08229E4,2.654125E3,2.099675E3,2.04845E3,8.77445E3,8.6335004E2,1.790775E3,1.7588E3,3.40875E2,1.2E0,2.04725E3,5.25875E2,3.37475E2,1.501025E3,2.8975E2,6.095E2,1.1493E3,3.39625E2,1.25E0],"tree_param":{"num_deleted":"0","num_feature":"15","num_nodes":"21","size_leaf_vector":"0"}},{"base_weights":[-1.5959296E0,-1.0617145E0,-1.8298264E0,-8.678994E-1,-1.3027201E0,-1.5960517E0,-1.8829734E0,-6.707532E-1,-9.59684E-1,-1.3446175E0,-1.0616792E0,-6.715071E-2,-1.5966936E0,-7.8192014E-1,-4.8398122E-1,-1.0131263E0,-6.63841E-1,-1.4659874E0,-1.27094E0,-1.0669346E0,5.5636436E-2,-9.5905595E-2,-1.5971013E0],"categories":[],"categories_nodes":[],"categories_segments":[],"categories_sizes":[],"default_left":[0,0,0,0,1,1,0,1,1,1,1,0,1,0,0,0,0,0,0,0,0,0,0],"id":1,"left_children":[1,3,5,7,9,11,-1,13,15,17,19,-1,21,-1,-1,-1,-1,-1,-1,-1,-1,-1,-1],"loss_changes":[1.9305703E3,2.1362598E2,1.11296875E2,4.3201294E1,1.02890625E1,1.1918945E0,0E0,1.5171478E1,2.3252197E1,1.4543457E0,2.5026245E0,0E0,7.861328E-2,0E0,0E0,0E0,0E0,0E0,0E0,0E0,0E0,0E0,0E0],"parents":[2147483647,0,0,1,1,2,2,3,3,4,4,5,5,7,7,8,8,9,9,10,10,12,12],"right_children":[2,4,6,8,10,12,-1,14,16,18,20,-1,22,-1,-1,-1,-1,-1,-1,-1,-1,-1,-1],"split_conditions":[2.75E0,1.25E0,3.75E0,2.5E-1,2.5E0,5E-1,-6.68697E-2,1.5E0,2.5E0,1.0724375E-1,7.541946E-1,-2.384711E-3,1.5597403E0,-2.776819E-2,-1.7187538E-2,-3.597897E-2,-2.3574866E-2,-5.206135E-2,-4.513466E-2,-3.7889857E-2,1.9758067E-3,-3.405878E-3,-5.671757E-2],"split_indices":[3,3,3,3,7,5,0,9,7,13,13,0,4,0,0,0,0,0,0,0,0,0,0],"split_type":[0,0,0,0,0,0,0,0,0,0,0,0,0,0,0,0,0,0,0,0,0,0,0],"sum_hessian":[1.5562524E4,4.7518984E3,1.0810626E4,2.6534248E3,2.0984736E3,2.0466857E3,8.76394E3,8.632145E2,1.7902103E3,1.7577292E3,3.4074432E2,1.1999984E0,2.0454856E3,5.257662E2,3.3744827E2,1.5005035E3,2.8970685E2,6.0905725E2,1.148672E3,3.3949432E2,1.2499988E0,1.0490952E0,2.0444365E3],"tree_param":{"num_deleted":"0","num_feature":"15","num_nodes":"23","size_leaf_vector":"0"}},{"base_weights":[-1.5435205E0,-1.0255868E0,-1.7707671E0,-8.3802164E-1,-1.2590299E0,-1.5434538E0,-1.822499E0,-6.4762336E-1,-9.26704E-1,-1.2995795E0,-1.0258878E0,-6.6828944E-2,-1.544068E0,-7.549999E-1,-4.6728224E-1,-9.783137E-1,-6.4114684E-1,-1.3527315E0,-1.1517417E0,-1.0310129E0,5.5360254E-2,-9.549803E-2,-1.5444514E0],"categories":[],"categories_nodes":[],"categories_segments":[],"categories_sizes":[],"default_left":[0,0,0,0,1,1,0,1,1,1,1,0,1,0,0,0,0,0,0,0,0,0,0],"id":2,"left_children":[1,3,5,7,9,11,-1,13,15,17,19,-1,21,-1,-1,-1,-1,-1,-1,-1,-1,-1,-1],"loss_changes":[1.8138594E3,2.0004834E2,1.0516406E2,4.028235E1,9.623291E0,1.0644531E0,0E0,1.41432495E1,2.1647705E1,1.8640137E0,2.3677979E0,0E0,3.4179688E-3,0E0,0E0,0E0,0E0,0E0,0E0,0E0,0E0,0E0,0E0],"parents":[2147483647,0,0,1,1,2,2,3,3,4,4,5,5,7,7,8,8,9,9,10,10,12,12],"right_children":[2,4,6,8,10,12,-1,14,16,18,20,-1,22,-1,-1,-1,-1,-1,-1,-1,-1,-1,-1],"split_conditions":[2.75E0,1.25E0,3.75E0,2.5E-1,2.5E0,5E-1,-6.472208E-2,1.5E0,2.5E0,5E-1,7.541946E-1,-2.3732842E-3,1.5597403E0,-2.6812175E-2,-1.659451E-2,-3.474268E-2,-2.2768931E-2,-4.803931E-2,-4.0901598E-2,-3.6614176E-2,1.9659987E-3,-3.3914044E-3,-5.484782E-2],"split_indices":[3,3,3,3,7,5,0,9,7,12,13,0,4,0,0,0,0,0,0,0,0,0,0],"split_type":[0,0,0,0,0,0,0,0,0,0,0,0,0,0,0,0,0,0,0,0,0,0,0],"sum_hessian":[1.5522041E4,4.746462E3,1.0775579E4,2.6514226E3,2.0950393E3,2.0416458E3,8.733934E3,8.628267E2,1.7885958E3,1.754669E3,3.4037042E2,1.1999931E0,2.0404458E3,5.25455E2,3.373717E2,1.4990126E3,2.8958322E2,1.2445315E3,5.1013742E2,3.3912045E2,1.2499951E0,1.048987E0,2.0393967E3],"tree_param":{"num_deleted":"0","num_feature":"15","num_nodes":"23","size_leaf_vector":"0"}},{"base_weights":[-1.495149E0,-9.9135315E-1,-1.7169341E0,-8.0953455E-1,-1.2179648E0,-1.4947757E0,-1.767577E0,-6.2545687E-1,-8.9533484E-1,-1.2573206E0,-9.919366E-1,-6.650874E-2,-1.4953649E0,-7.292596E-1,-4.5121863E-1,-9.4525206E-1,-6.193816E-1,-1.3745335E0,-1.1864699E0,-9.969407E-1,5.5085506E-2],"categories":[],"categories_nodes":[],"categories_segments":[],"categories_sizes":[],"default_left":[0,0,0,0,1,1,0,1,1,1,1,0,0,0,0,0,0,0,0,0,0],"id":3,"left_children":[1,3,5,7,9,11,-1,13,15,17,19,-1,-1,-1,-1,-1,-1,-1,-1,-1,-1],"loss_changes":[1.7149688E3,1.8794336E2,1.00375E2,3.7640137E1,9.062988E0,9.53125E-1,0E0,1.3202301E1,2.0204834E1,2.050537E0,2.2429504E0,0E0,0E0,0E0,0E0,0E0,0E0,0E0,0E0,0E0,0E0],"parents":[2147483647,0,0,1,1,2,2,3,3,4,4,5,5,7,7,8,8,9,9,10,10],"right_children":[2,4,6,8,10,12,-1,14,16,18,20,-1,-1,-1,-1,-1,-1,-1,-1,-1,-1],"split_conditions":[2.75E0,1.25E0,3.75E0,2.5E-1,2.5E0,5E-1,-6.277165E-2,1.5E0,2.5E0,1.0724375E-1,7.541946E-1,-2.361913E-3,-5.3104624E-2,-2.5898065E-2,-1.6024046E-2,-3.3568565E-2,-2.1995988E-2,-4.8813563E-2,-4.2134892E-2,-3.5404176E-2,1.9562417E-3],"split_indices":[3,3,3,3,7,5,0,9,7,13,13,0,0,0,0,0,0,0,0,0,0],"split_type":[0,0,0,0,0,0,0,0,0,0,0,0,0,0,0,0,0,0,0,0,0],"sum_hessian":[1.5458121E4,4.737876E3,1.0720245E4,2.648257E3,2.089619E3,2.0336846E3,8.686561E3,8.622133E2,1.7860438E3,1.74984E3,3.3977887E2,1.1999846E0,2.0324846E3,5.249627E2,3.3725058E2,1.4966561E3,2.893876E2,6.0590735E2,1.1439326E3,3.385289E2,1.249989E0],"tree_param":{"num_deleted":"0","num_feature":"15","num_nodes":"21","size_leaf_vector":"0"}},{"base_weights":[-1.4503224E0,-9.588558E-1,-1.6676493E0,-7.823293E-1,-1.179288E0,-1.4495293E0,-1.7174826E0,-8.8006985E-1,-6.297123E-1,-1.2175899E0,-9.596584E-1,-6.619008E-2,-1.4500962E0,-7.0461553E-1,-9.6076435E-1,-4.3166685E-1,-7.180254E-1,-1.2687505E0,-1.0758415E0,-9.645499E-1,5.4812077E-2,-1.4507871E0,-1.5470955E-1],"categories":[],"categories_nodes":[],"categories_segments":[],"categories_sizes":[],"default_left":[0,0,0,1,1,1,0,0,0,1,1,0,1,0,0,0,0,0,0,0,0,0,0],"id":4,"left_children":[1,3,5,7,9,11,-1,13,15,17,19,-1,21,-1,-1,-1,-1,-1,-1,-1,-1,-1,-1],"loss_changes":[1.6305332E3,1.7711914E2,9.666016E1,3.5292603E1,8.594482E0,8.5498047E-1,0E0,1.7405273E1,1.6195312E1,2.1992188E0,2.1270142E0,0E0,8.935547E-2,0E0,0E0,0E0,0E0,0E0,0E0,0E0,0E0,0E0,0E0],"parents":[2147483647,0,0,1,1,2,2,3,3,4,4,5,5,7,7,8,8,9,9,10,10,12,12],"right_children":[2,4,6,8,10,12,-1,14,16,18,20,-1,22,-1,-1,-1,-1,-1,-1,-1,-1,-1,-1],"split_conditions":[2.75E0,1.25E0,3.75E0,1.5E0,2.5E0,5E-1,-6.099265E-2,2.5E-1,7.5E-1,5E-1,7.541946E-1,-2.3505962E-3,7.938183E-1,-2.5022885E-2,-3.411945E-2,-1.5329707E-2,-2.5499105E-2,-4.505691E-2,-3.8206168E-2,-3.4253888E-2,1.9465315E-3,-5.152154E-2,-5.494172E-3],"split_indices":[3,3,3,9,7,5,0,3,3,12,13,0,13,0,0,0,0,0,0,0,0,0,0],"split_type":[0,0,0,0,0,0,0,0,0,0,0,0,0,0,0,0,0,0,0,0,0,0,0],"sum_hessian":[1.5373365E4,4.7264736E3,1.0646892E4,2.644055E3,2.0824185E3,2.0231266E3,8.623765E3,1.589455E3,1.0546E3,1.7434252E3,3.3899326E2,1.1999729E0,2.0219265E3,5.24309E2,1.065146E3,3.3920715E2,7.153928E2,1.2361182E3,5.0730704E2,3.3774326E2,1.2499806E0,2.0199266E3,1.9999425E0],"tree_param":{"num_deleted":"0","num_feature":"15","num_nodes":"23","size_leaf_vector":"0"}},{"base_weights":[-1.4086148E0,-9.232576E-1,-1.6202985E0,-7.5630844E-1,-1.1386312E0,-1.4033293E0,-1.671611E0,-8.510343E-1,-6.085214E-1,-1.1608428E0,-7.83787E-1,-6.587299E-2,-1.4038574E0,-6.809927E-1,-9.2932844E-1,-4.169173E-1,-6.94072E-1,-1.1634353E0,-9.8851115E-2,1.0322023E-1,-7.976322E-1,-8.263173E-2,-1.4042143E0],"categories":[],"categories_nodes":[],"categories_segments":[],"categories_sizes":[],"default_left":[0,0,0,1,1,1,0,0,0,1,1,0,1,0,0,0,0,0,0,0,0,0,0],"id":5,"left_children":[1,3,5,7,9,11,-1,13,15,17,19,-1,21,-1,-1,-1,-1,-1,-1,-1,-1,-1,-1],"loss_changes":[1.5581797E3,1.6084692E2,1.002793E2,3.3067993E1,8.911621E0,7.583008E-1,0E0,1.6347534E1,1.5162384E1,4.3015137E0,2.3845215E0,0E0,8.7402344E-2,0E0,0E0,0E0,0E0,0E0,0E0,0E0,0E0,0E0,0E0],"parents":[2147483647,0,0,1,1,2,2,3,3,4,4,5,5,7,7,8,8,9,9,10,10,12,12],"right_children":[2,4,6,8,10,12,-1,14,16,18,20,-1,22,-1,-1,-1,-1,-1,-1,-1,-1,-1,-1],"split_conditions":[2.25E0,1.25E0,3.75E0,1.5E0,2.5E0,5E-1,-5.936362E-2,2.5E-1,7.5E-1,4.0526495E0,2.0552986E0,-2.3393356E-3,1.5597403E0,-2.4183972E-2,-3.3003073E-2,-1.4805908E-2,-2.4648454E-2,-4.131687E-2,-3.510482E-3,3.6656414E-3,-2.8326169E-2,-2.9344857E-3,-4.9867608E-2],"split_indices":[3,3,3,9,9,5,0,3,3,8,4,0,4,0,0,0,0,0,0,0,0,0,0],"split_type":[0,0,0,0,0,0,0,0,0,0,0,0,0,0,0,0,0,0,0,0,0,0,0],"sum_hessian":[1.5270227E4,4.6499277E3,1.0620299E4,2.6389905E3,2.0109371E3,2.0729824E3,8.547316E3,1.5858914E3,1.0530992E3,1.8760336E3,1.349036E2,1.1999577E0,2.0717825E3,5.235119E2,1.0623794E3,3.390108E2,7.1408844E2,1.870732E3,5.3015046E0,1.3101687E0,1.3359343E2,1.0424365E0,2.07074E3],"tree_param":{"num_deleted":"0","num_feature":"15","num_nodes":"23","size_leaf_vector":"0"}},{"base_weights":[-1.3696442E0,-8.9829075E-1,-1.580584E0,-7.3138684E-1,-1.1077619E0,-1.3679594E0,-1.6294535E0,-8.232845E-1,-5.8816063E-1,-1.1452678E0,-8.941266E-1,-6.555743E-2,-1.3684881E0,-6.583247E-1,-8.9934415E-1,-4.027085E-1,-6.710845E-1,-1.2604016E0,-1.0763243E0,-8.989547E-1,6.0317088E-2,-1.3698479E0,-2.5381538E-1],"categories":[],"categories_nodes":[],"categories_segments":[],"categories_sizes":[],"default_left":[0,0,0,1,1,1,0,0,0,1,1,0,1,0,0,0,0,0,0,0,0,0,0],"id":6,"left_children":[1,3,5,7,9,11,-1,13,15,17,19,-1,21,-1,-1,-1,-1,-1,-1,-1,-1,-1,-1],"loss_changes":[1.496252E3,1.5823706E2,9.156055E1,3.1033936E1,8.718262E0,6.894531E-1,0E0,1.5387573E1,1.4208191E1,3.3325195E0,2.0041199E0,0E0,3.5986328E-1,0E0,0E0,0E0,0E0,0E0,0E0,0E0,0E0,0E0,0E0],"parents":[2147483647,0,0,1,1,2,2,3,3,4,4,5,5,7,7,8,8,9,9,10,10,12,12],"right_children":[2,4,6,8,10,12,-1,14,16,18,20,-1,22,-1,-1,-1,-1,-1,-1,-1,-1,-1,-1],"split_conditions":[2.75E0,1.25E0,3.75E0,1.5E0,2.5E0,5E-1,-5.786649E-2,2.5E-1,7.5E-1,1.0724375E-1,7.541946E-1,-2.328129E-3,4.2233763E0,-2.3378966E-2,-3.1938247E-2,-1.4301314E-2,-2.3832103E-2,-4.4760413E-2,-3.822331E-2,-3.1924415E-2,2.1420298E-3,-4.864716E-2,-9.0137E-3],"split_indices":[3,3,3,9,7,5,0,3,3,13,13,0,8,0,0,0,0,0,0,0,0,0,0],"split_type":[0,0,0,0,0,0,0,0,0,0,0,0,0,0,0,0,0,0,0,0,0,0,0],"sum_hessian":[1.5150846E4,4.696588E3,1.0454259E4,2.63311E3,2.0634778E3,1.9954277E3,8.458831E3,1.5817156E3,1.0513945E3,1.7267781E3,3.366996E2,1.1999395E0,1.9942278E3,5.225879E2,1.0591277E3,3.3878354E2,7.1261096E2,5.969505E2,1.1298276E3,3.354499E2,1.2496902E0,1.9900392E3,4.188564E0],"tree_param":{"num_deleted":"0","num_feature":"15","num_nodes":"23","size_leaf_vector":"0"}},{"base_weights":[-1.3331589E0,-8.7012035E-1,-1.5418993E0,-7.0748734E-1,-1.0748581E0,-1.3308758E0,-1.5905794E0,-7.5562733E-1,-4.4569415E-1,-1.0962018E0,-7.3877066E-1,-6.524343E-2,-1.3313879E0,-5.929656E-1,-8.3180004E-1,-3.526024E-1,-7.291457E-1,-1.1272317E0,-8.947538E-1,1.0802181E-1,-7.5209796E-1,-1.3326956E0,-2.507699E-1],"categories":[],"categories_nodes":[],"categories_segments":[],"categories_sizes":[],"default_left":[0,0,0,1,1,1,0,0,1,1,1,0,1,0,0,0,0,0,0,0,0,0,0],"id":7,"left_children":[1,3,5,7,9,11,-1,13,15,17,19,-1,21,-1,-1,-1,-1,-1,-1,-1,-1,-1,-1],"loss_changes":[1.4419043E3,1.5019043E2,8.999805E1,3.0607544E1,8.546143E0,6.196289E-1,0E0,2.363794E1,9.313538E0,4.2487793E0,2.2792816E0,0E0,2.3461914E-1,0E0,0E0,0E0,0E0,0E0,0E0,0E0,0E0,0E0,0E0],"parents":[2147483647,0,0,1,1,2,2,3,3,4,4,5,5,7,7,8,8,9,9,10,10,12,12],"right_children":[2,4,6,8,10,12,-1,14,16,18,20,-1,22,-1,-1,-1,-1,-1,-1,-1,-1,-1,-1],"split_conditions":[2.75E0,1.25E0,3.75E0,2.5E0,2.5E0,5E-1,-5.648596E-2,2.5E-1,5E-1,2.5E0,2.0552986E0,-2.3169783E-3,4.2233763E0,-2.1057881E-2,-2.9539565E-2,-1.2521905E-2,-2.589402E-2,-4.0031176E-2,-3.1775232E-2,3.8361591E-3,-2.6709119E-2,-4.732778E-2,-8.905547E-3],"split_indices":[3,3,3,7,9,5,0,3,6,7,4,0,8,0,0,0,0,0,0,0,0,0,0],"split_type":[0,0,0,0,0,0,0,0,0,0,0,0,0,0,0,0,0,0,0,0,0,0,0],"sum_hessian":[1.501715E4,4.678601E3,1.0338549E4,2.6265115E3,2.0520898E3,1.9787689E3,8.35978E3,2.2062954E3,4.2021585E2,1.9131929E3,1.3889696E2,1.199918E0,1.977569E3,7.252166E2,1.4810789E3,3.2932086E2,9.089501E1,1.6271969E3,2.8599594E2,1.305289E0,1.3759166E2,1.9733866E3,4.1824074E0],"tree_param":{"num_deleted":"0","num_feature":"15","num_nodes":"23","size_leaf_vector":"0"}},{"base_weights":[-1.2988499E0,-8.431244E-1,-1.505971E0,-6.8452585E-1,-1.0434608E0,-1.2959384E0,-1.5546211E0,-7.736846E-1,-5.4597354E-1,-1.1271385E0,-9.449664E-1,-6.493095E-2,-1.2964354E0,-8.3345956E-1,-5.8275825E-1,-3.701632E-1,-6.2495345E-1,-1.1307871E0,-2.4570091E-1,-9.869411E-1,-6.976129E-1,-1.3275951E0,-1.1057812E0],"categories":[],"categories_nodes":[],"categories_segments":[],"categories_sizes":[],"default_left":[0,0,0,1,1,1,0,1,0,1,1,0,1,0,0,0,0,0,0,0,0,0,0],"id":8,"left_children":[1,3,5,7,9,11,-1,13,15,17,19,-1,21,-1,-1,-1,-1,-1,-1,-1,-1,-1,-1],"loss_changes":[1.3946406E3,1.4277979E2,8.892969E1,2.9202637E1,8.680664E0,5.5688477E-1,0E0,1.4295471E1,1.2865906E1,1.2944336E0,4.961853E0,0E0,3.930664E-1,0E0,0E0,0E0,0E0,0E0,0E0,0E0,0E0,0E0,0E0],"parents":[2147483647,0,0,1,1,2,2,3,3,4,4,5,5,7,7,8,8,9,9,10,10,12,12],"right_children":[2,4,6,8,10,12,-1,14,16,18,20,-1,22,-1,-1,-1,-1,-1,-1,-1,-1,-1,-1],"split_conditions":[2.75E0,1.25E0,3.75E0,1.5E0,2.9046044E-1,5E-1,-5.5208977E-2,3.95E1,7.5E-1,3.5E0,2.5E0,-2.3058814E-3,2.5E0,-2.9598499E-2,-2.0695388E-2,-1.3145539E-2,-2.2193858E-2,-4.015744E-2,-8.725532E-3,-3.5049062E-2,-2.4774201E-2,-4.7146644E-2,-3.926941E-2],"split_indices":[3,3,3,9,14,5,0,5,3,12,7,0,7,0,0,0,0,0,0,0,0,0,0],"split_type":[0,0,0,0,0,0,0,0,0,0,0,0,0,0,0,0,0,0,0,0,0,0,0],"sum_hessian":[1.4871024E4,4.6589688E3,1.0212057E4,2.6193262E3,2.0396425E3,1.9605498E3,8.251507E3,1.5722905E3,1.0470356E3,1.0593319E3,9.8031055E2,1.1998935E0,1.9593499E3,1.1776932E3,3.9459732E2,3.3812012E2,7.089155E2,1.0527979E3,6.5340133E0,8.184273E2,1.6188326E2,1.6446779E3,3.14672E2],"tree_param":{"num_deleted":"0","num_feature":"15","num_nodes":"23","size_leaf_vector":"0"}},{"base_weights":[-1.2665116E0,-8.172561E-1,-1.4725162E0,-6.6244173E-1,-1.0135309E0,-1.263011E0,-1.5212629E0,-7.091328E-1,-4.0949902E-1,-1.0954151E0,-9.1727984E-1,-1.2938013E0,-1.0757079E0,-5.526439E-1,-7.8272593E-1,-3.1934768E-1,-6.860236E-1,-1.1048477E0,-5.183028E-1,-9.5827854E-1,-6.7634445E-1,-1.2947102E0,-7.582755E-2,-1.0785185E0,-2.8802466E-2],"categories":[],"categories_nodes":[],"categories_segments":[],"categories_sizes":[],"default_left":[0,0,0,1,1,1,0,0,1,1,1,1,1,0,0,0,0,0,0,0,0,0,0,0,0],"id":9,"left_children":[1,3,5,7,9,11,-1,13,15,17,19,21,23,-1,-1,-1,-1,-1,-1,-1,-1,-1,-1,-1,-1],"loss_changes":[1.3532383E3,1.3599878E2,8.8203125E1,2.8701172E1,8.301758E0,5.32959E-1,0E0,2.201648E1,8.943748E0,1.3621826E0,4.7174683E0,1.0554199E0,7.04834E-1,0E0,0E0,0E0,0E0,0E0,0E0,0E0,0E0,0E0,0E0,0E0,0E0],"parents":[2147483647,0,0,1,1,2,2,3,3,4,4,5,5,7,7,8,8,9,9,10,10,11,11,12,12],"right_children":[2,4,6,8,10,12,-1,14,16,18,20,22,24,-1,-1,-1,-1,-1,-1,-1,-1,-1,-1,-1,-1],"split_conditions":[2.75E0,1.25E0,3.75E0,2.5E0,2.9046044E-1,2.5E0,-5.4024335E-2,2.5E-1,5E-1,2.5E0,2.5E0,7.938183E-1,7.466216E-1,-1.9625943E-2,-2.7796805E-2,-1.1340937E-2,-2.4362633E-2,-3.9236255E-2,-1.8406393E-2,-3.403117E-2,-2.4018899E-2,-4.5978807E-2,-2.69285E-3,-3.8301233E-2,-1.0228568E-3],"split_indices":[3,3,3,7,14,7,0,3,6,12,7,13,13,0,0,0,0,0,0,0,0,0,0,0,0],"split_type":[0,0,0,0,0,0,0,0,0,0,0,0,0,0,0,0,0,0,0,0,0,0,0,0,0],"sum_hessian":[1.4714226E4,4.6379585E3,1.0076268E4,2.6116433E3,2.0263151E3,1.9410336E3,8.1352334E3,2.1929668E3,4.186765E2,1.0517229E3,9.7459204E2,1.6279728E3,3.1306085E2,7.2237054E2,1.4705963E3,3.2824075E2,9.043577E1,1.0278885E3,2.3834387E1,8.132954E2,1.6129663E2,1.6262744E3,1.6983035E0,3.11991E2,1.0698769E0],"tree_param":{"num_deleted":"0","num_feature":"15","num_nodes":"25","size_leaf_vector":"0"}},{"base_weights":[-1.2359394E0,-7.924458E-1,-1.4412599E0,-6.412053E-1,-9.849396E-1,-1.2318076E0,-1.4902323E0,-7.278452E-1,-5.0699407E-1,-1.107045E0,-9.190873E-1,-1.2621353E0,-1.0477059E0,-7.534693E-1,-3.289563E-1,-4.812505E-1,-1.1116903E0,-1.1094226E0,-4.97531E-2,-9.4461936E-1,-6.212922E-1,-1.263023E0,-7.53483E-2,-1.0504494E0,-2.867839E-2],"categories":[],"categories_nodes":[],"categories_segments":[],"categories_sizes":[],"default_left":[0,0,0,1,1,1,0,1,1,1,1,1,1,0,0,0,0,0,0,0,0,0,0,0,0],"id":10,"left_children":[1,3,5,7,9,11,-1,13,15,17,19,21,23,-1,-1,-1,-1,-1,-1,-1,-1,-1,-1,-1,-1],"loss_changes":[1.3166387E3,1.2973999E2,8.783984E1,2.7524048E1,8.415161E0,5.930176E-1,0E0,1.4131775E1,1.2225372E1,1.2598267E0,5.807007E0,9.7265625E-1,6.5719604E-1,0E0,0E0,0E0,0E0,0E0,0E0,0E0,0E0,0E0,0E0,0E0,0E0],"parents":[2147483647,0,0,1,1,2,2,3,3,4,4,5,5,7,7,8,8,9,9,10,10,11,11,12,12],"right_children":[2,4,6,8,10,12,-1,14,16,18,20,22,24,-1,-1,-1,-1,-1,-1,-1,-1,-1,-1,-1,-1],"split_conditions":[2.75E0,1.25E0,3.75E0,1.5E0,1.06203005E-1,2.5E0,-5.2922353E-2,6.015873E-1,6.4115644E-1,4.1273203E0,2.5E0,7.938183E-1,7.466216E-1,-2.675782E-2,-1.1682166E-2,-1.7090563E-2,-3.9479256E-2,-3.9398722E-2,-1.7668728E-3,-3.3546098E-2,-2.2063836E-2,-4.485351E-2,-2.6758306E-3,-3.730442E-2,-1.0184505E-3],"split_indices":[3,3,3,9,13,7,0,13,14,8,9,13,13,0,0,0,0,0,0,0,0,0,0,0,0],"split_type":[0,0,0,0,0,0,0,0,0,0,0,0,0,0,0,0,0,0,0,0,0,0,0,0,0],"sum_hessian":[1.4548079E4,4.615642E3,9.932437E3,2.6034517E3,2.0121903E3,1.9203615E3,8.012075E3,1.5614413E3,1.0420104E3,6.623728E2,1.3498175E3,1.6100841E3,3.1027737E2,1.4607659E3,1.0067538E2,1.0127108E3,2.9299576E1,6.6050824E2,1.8645455E0,1.2278383E3,1.2197922E2,1.6083868E3,1.6973501E0,3.0920773E2,1.0696346E0],"tree_param":{"num_deleted":"0","num_feature":"15","num_nodes":"25","size_leaf_vector":"0"}},{"base_weights":[-1.2069342E0,-7.685641E-1,-1.4119778E0,-6.207529E-1,-9.574868E-1,-1.2021596E0,-1.4612929E0,-6.6604865E-1,-3.763878E-1,-9.9332875E-1,-7.569715E-1,-1.2320985E0,-1.0208735E0,-5.131731E-1,-7.382914E-1,-2.8908572E-1,-6.461858E-1,-1.107478E0,-9.260892E-1,-7.6188743E-1,7.924058E-2,-1.2329669E0,-7.487232E-2,-1.0235535E0,-2.8554862E-2],"categories":[],"categories_nodes":[],"categories_segments":[],"categories_sizes":[],"default_left":[0,0,0,1,1,1,0,0,1,1,1,1,1,0,0,0,0,0,0,0,0,0,0,0,0],"id":11,"left_children":[1,3,5,7,9,11,-1,13,15,17,19,21,23,-1,-1,-1,-1,-1,-1,-1,-1,-1,-1,-1,-1],"loss_changes":[1.2843633E3,1.23885254E2,8.778125E1,2.6880493E1,8.626221E0,6.713867E-1,0E0,2.1225098E1,8.566177E0,4.977173E0,1.8471832E0,8.967285E-1,6.130676E-1,0E0,0E0,0E0,0E0,0E0,0E0,0E0,0E0,0E0,0E0,0E0,0E0],"parents":[2147483647,0,0,1,1,2,2,3,3,4,4,5,5,7,7,8,8,9,9,10,10,11,11,12,12],"right_children":[2,4,6,8,10,12,-1,14,16,18,20,22,24,-1,-1,-1,-1,-1,-1,-1,-1,-1,-1,-1,-1],"split_conditions":[2.75E0,1.25E0,3.75E0,2.5E0,2.5E0,2.5E0,-5.189463E-2,2.5E-1,5E-1,1.0724375E-1,7.541946E-1,7.938183E-1,7.466216E-1,-1.8224224E-2,-2.621881E-2,-1.0266249E-2,-2.2947881E-2,-3.9329667E-2,-3.288804E-2,-2.705677E-2,2.8140566E-3,-4.378613E-2,-2.6589273E-3,-3.634927E-2,-1.0140637E-3],"split_indices":[3,3,3,7,7,7,0,3,6,13,13,13,13,0,0,0,0,0,0,0,0,0,0,0,0],"split_type":[0,0,0,0,0,0,0,0,0,0,0,0,0,0,0,0,0,0,0,0,0,0,0,0,0],"sum_hessian":[1.437414E4,4.592402E3,9.781737E3,2.5950378E3,1.997364E3,1.8986924E3,7.883045E3,2.17804E3,4.169979E2,1.6686754E3,3.2868866E2,1.5913054E3,3.07387E2,7.1895874E2,1.4590812E3,3.2709122E2,8.9906685E1,5.7445184E2,1.0942235E3,3.2744736E2,1.2413025E0,1.589609E3,1.6963974E0,3.0631763E2,1.0693929E0],"tree_param":{"num_deleted":"0","num_feature":"15","num_nodes":"25","size_leaf_vector":"0"}},{"base_weights":[-1.1793689E0,-7.455931E-1,-1.3844737E0,-6.0104024E-1,-9.3116045E-1,-1.1739179E0,-1.4342381E0,-6.625602E-1,-4.2225248E-1,-1.0118048E0,-8.370167E-1,-1.2035323E0,-9.951124E-1,-7.440521E-1,-5.2996874E-1,-4.8754913E-1,-1.7055212E-1,-1.0210534E0,-4.616221E-1,-8.7687767E-1,-6.062621E-1,-1.204383E0,-7.439957E-2,-6.7609566E-1,-1.0571276E0],"categories":[],"categories_nodes":[],"categories_segments":[],"categories_sizes":[],"default_left":[0,0,0,1,1,1,0,1,1,1,1,1,1,0,0,0,0,0,0,0,0,0,0,0,0],"id":12,"left_children":[1,3,5,7,9,11,-1,13,15,17,19,21,23,-1,-1,-1,-1,-1,-1,-1,-1,-1,-1,-1,-1],"loss_changes":[1.2555098E3,1.184353E2,8.798633E1,2.6377197E1,8.59082E0,7.631836E-1,0E0,1.767212E1,1.0622322E1,1.6398926E0,4.763855E0,8.276367E-1,6.767273E-1,0E0,0E0,0E0,0E0,0E0,0E0,0E0,0E0,0E0,0E0,0E0,0E0],"parents":[2147483647,0,0,1,1,2,2,3,3,4,4,5,5,7,7,8,8,9,9,10,10,11,11,12,12],"right_children":[2,4,6,8,10,12,-1,14,16,18,20,22,24,-1,-1,-1,-1,-1,-1,-1,-1,-1,-1,-1,-1],"split_conditions":[2.75E0,1.25E0,3.75E0,3.95E1,2.9046044E-1,2.5E0,-5.0933838E-2,1.5E0,3.3290176E0,2.5E0,2.5E0,7.938183E-1,5E-1,-2.642339E-2,-1.8820684E-2,-1.7314244E-2,-6.0567865E-3,-3.6260486E-2,-1.6393501E-2,-3.1140398E-2,-2.1530077E-2,-4.2771038E-2,-2.6421384E-3,-2.4010064E-2,-3.7541583E-2],"split_indices":[3,3,3,5,14,7,0,9,8,12,7,13,2,0,0,0,0,0,0,0,0,0,0,0,0],"split_type":[0,0,0,0,0,0,0,0,0,0,0,0,0,0,0,0,0,0,0,0,0,0,0,0,0],"sum_hessian":[1.419327E4,4.5680234E3,9.625246E3,2.5861091E3,1.9819147E3,1.8761814E3,7.7490645E3,1.9085664E3,6.775426E2,1.0271061E3,9.548085E2,1.571774E3,3.0440738E2,1.1600905E3,7.484759E2,5.322558E2,1.4528683E2,1.0036513E3,2.3454826E1,7.9580145E2,1.5900702E2,1.5700786E3,1.6954458E0,6.44451E1,2.399623E2],"tree_param":{"num_deleted":"0","num_feature":"15","num_nodes":"25","size_leaf_vector":"0"}},{"base_weights":[-1.153088E0,-7.23428E-1,-1.3585869E0,-5.819688E-1,-9.0586036E-1,-1.1470193E0,-1.4088867E0,-4.3131822E-1,-6.534344E-1,-1.0254692E0,-8.4190047E-1,-1.1762968E0,-9.7078055E-1,-5.032672E-1,-2.4421422E-1,-7.741969E-1,-5.5513716E-1,-1.0343182E0,-3.1196097E-1,-8.669743E-1,-5.5379665E-1,-1.177131E0,-7.393001E-2,-6.586911E-1,-1.0316145E0],"categories":[],"categories_nodes":[],"categories_segments":[],"categories_sizes":[],"default_left":[0,0,0,0,1,1,0,1,1,1,1,1,1,0,0,0,0,0,0,0,0,0,0,0,0],"id":13,"left_children":[1,3,5,7,9,11,-1,13,15,17,19,21,23,-1,-1,-1,-1,-1,-1,-1,-1,-1,-1,-1,-1],"loss_changes":[1.2298691E3,1.1338599E2,8.8365234E1,2.5660217E1,8.458252E0,8.171387E-1,0E0,1.0554749E1,1.7327148E1,1.6372681E0,5.9072266E0,7.6416016E-1,6.41449E-1,0E0,0E0,0E0,0E0,0E0,0E0,0E0,0E0,0E0,0E0,0E0,0E0],"parents":[2147483647,0,0,1,1,2,2,3,3,4,4,5,5,7,7,8,8,9,9,10,10,11,11,12,12],"right_children":[2,4,6,8,10,12,-1,14,16,18,20,22,24,-1,-1,-1,-1,-1,-1,-1,-1,-1,-1,-1,-1],"split_conditions":[2.75E0,1.25E0,3.75E0,2.5E-1,1.06203005E-1,2.5E0,-5.003354E-2,3.95E1,2.717248E-1,3.5E0,2.5E0,7.938183E-1,5E-1,-1.7872438E-2,-8.672736E-3,-2.7493916E-2,-1.9714486E-2,-3.6731556E-2,-1.1078614E-2,-3.0788701E-2,-1.966688E-2,-4.1803245E-2,-2.625463E-3,-2.3391979E-2,-3.663554E-2],"split_indices":[3,3,3,3,13,7,0,5,14,7,9,13,2,0,0,0,0,0,0,0,0,0,0,0,0],"split_type":[0,0,0,0,0,0,0,0,0,0,0,0,0,0,0,0,0,0,0,0,0,0,0,0,0],"sum_hessian":[1.4007099E4,4.5431E3,9.463999E3,2.577061E3,1.9660392E3,1.8530253E3,7.6109736E3,8.465788E2,1.7304822E3,6.447255E2,1.3213136E3,1.5516145E3,3.0141083E2,6.020631E2,2.4451569E2,7.527737E2,9.777085E2,6.3341125E2,1.13142805E1,1.2013076E3,1.20006E2,1.54992E3,1.6944947E0,6.400997E1,2.3740085E2],"tree_param":{"num_deleted":"0","num_feature":"15","num_nodes":"25","size_leaf_vector":"0"}},{"base_weights":[-1.1279849E0,-7.0206064E-1,-1.3341527E0,-5.63597E-1,-8.81478E-1,-1.1212759E0,-1.3850793E0,-6.0778445E-1,-3.2683036E-1,-9.1683656E-1,-6.8608725E-1,-1.1502682E0,-9.473362E-1,-7.314594E-1,-5.2025414E-1,-2.4216565E-1,-5.920577E-1,-9.683403E-1,-7.7907836E-1,-6.9103616E-1,8.7722376E-2,-1.151087E0,-7.3463626E-2,-6.4179355E-1,-1.007084E0],"categories":[],"categories_nodes":[],"categories_segments":[],"categories_sizes":[],"default_left":[0,0,0,1,1,1,0,1,1,1,1,1,1,0,0,0,0,0,0,0,0,0,0,0,0],"id":14,"left_children":[1,3,5,7,9,11,-1,13,15,17,19,21,23,-1,-1,-1,-1,-1,-1,-1,-1,-1,-1,-1,-1],"loss_changes":[1.206707E3,1.08596436E2,8.8947266E1,2.5416199E1,8.684814E0,8.8183594E-1,0E0,2.0470642E1,8.366375E0,5.7946777E0,1.7319946E0,7.060547E-1,6.1517334E-1,0E0,0E0,0E0,0E0,0E0,0E0,0E0,0E0,0E0,0E0,0E0,0E0],"parents":[2147483647,0,0,1,1,2,2,3,3,4,4,5,5,7,7,8,8,9,9,10,10,11,11,12,12],"right_children":[2,4,6,8,10,12,-1,14,16,18,20,22,24,-1,-1,-1,-1,-1,-1,-1,-1,-1,-1,-1,-1],"split_conditions":[2.75E0,1.25E0,3.75E0,2.5E0,2.5E0,2.5E0,-4.918807E-2,1.8217894E-1,5E-1,5E-1,7.541946E-1,7.938183E-1,5E-1,-2.5976185E-2,-1.847569E-2,-8.599985E-3,-2.1025639E-2,-3.4388494E-2,-2.766727E-2,-2.4540642E-2,3.115269E-3,-4.0878348E-2,-2.6089004E-3,-2.2791898E-2,-3.5764392E-2],"split_indices":[3,3,3,7,7,7,0,13,6,12,13,13,2,0,0,0,0,0,0,0,0,0,0,0,0],"split_type":[0,0,0,0,0,0,0,0,0,0,0,0,0,0,0,0,0,0,0,0,0,0,0,0,0],"sum_hessian":[1.3816311E4,4.517483E3,9.298827E3,2.5677231E3,1.9497598E3,1.8292952E3,7.469532E3,2.1537234E3,4.1399997E2,1.6269407E3,3.2281915E2,1.5309406E3,2.9835468E2,8.691202E2,1.2846031E3,3.2497778E2,8.902221E1,1.1504443E3,4.764963E2,3.2158527E2,1.2338649E0,1.529247E3,1.6935449E0,6.357271E1,2.3478195E2],"tree_param":{"num_deleted":"0","num_feature":"15","num_nodes":"25","size_leaf_vector":"0"}},{"base_weights":[-1.1039398E0,-6.8140996E-1,-1.3110362E0,-5.458524E-1,-8.579287E-1,-1.0965842E0,-1.362675E0,-3.9858076E-1,-6.1602616E-1,-9.3806946E-1,-7.6507485E-1,-1.1253363E0,-9.247113E-1,-4.6865308E-1,-2.172493E-1,-7.3362017E-1,-5.206288E-1,-9.471792E-1,-4.1171864E-1,-8.039035E-1,-5.437955E-1,-1.126141E0,-7.300042E-2,-9.274194E-1,-1.6934697E-2],"categories":[],"categories_nodes":[],"categories_segments":[],"categories_sizes":[],"default_left":[0,0,0,0,1,1,0,1,1,1,1,1,1,0,0,0,0,0,0,0,0,0,0,0,0],"id":15,"left_children":[1,3,5,7,9,11,-1,13,15,17,19,21,23,-1,-1,-1,-1,-1,-1,-1,-1,-1,-1,-1,-1],"loss_changes":[1.1857793E3,1.0405298E2,8.970215E1,2.4629211E1,8.921631E0,9.536133E-1,0E0,1.0015503E1,1.6399353E1,1.8321533E0,4.720642E0,6.525879E-1,6.2390137E-1,0E0,0E0,0E0,0E0,0E0,0E0,0E0,0E0,0E0,0E0,0E0,0E0],"parents":[2147483647,0,0,1,1,2,2,3,3,4,4,5,5,7,7,8,8,9,9,10,10,11,11,12,12],"right_children":[2,4,6,8,10,12,-1,14,16,18,20,22,24,-1,-1,-1,-1,-1,-1,-1,-1,-1,-1,-1,-1],"split_conditions":[2.75E0,1.25E0,3.75E0,2.5E-1,2.9046044E-1,2.5E0,-4.839243E-2,3.95E1,2.717248E-1,2.5E0,2.5E0,7.938183E-1,7.466216E-1,-1.6643193E-2,-7.7151353E-3,-2.605292E-2,-1.8488998E-2,-3.3637006E-2,-1.4621289E-2,-2.8548881E-2,-1.9311713E-2,-3.999244E-2,-2.592451E-3,-3.293528E-2,-6.013988E-4],"split_indices":[3,3,3,3,14,7,0,5,14,12,7,13,13,0,0,0,0,0,0,0,0,0,0,0,0],"split_type":[0,0,0,0,0,0,0,0,0,0,0,0,0,0,0,0,0,0,0,0,0,0,0,0,0],"sum_hessian":[1.3621901E4,4.4913643E3,9.130537E3,2.558242E3,1.9331224E3,1.8051069E3,7.3254297E3,8.4217584E2,1.7160662E3,1.00000946E3,9.3311304E2,1.5098551E3,2.952519E2,5.986498E2,2.435261E2,7.4556445E2,9.705017E2,9.7695087E2,2.3058598E1,7.765886E2,1.5652444E2,1.5081625E3,1.6925958E0,2.9420773E2,1.0441461E0],"tree_param":{"num_deleted":"0","num_feature":"15","num_nodes":"25","size_leaf_vector":"0"}},{"base_weights":[-1.0808605E0,-6.6147125E-1,-1.2891039E0,-5.2870727E-1,-8.3522093E-1,-1.0727805E0,-1.3415481E0,-6.1024433E-1,-4.0379572E-1,-9.545891E-1,-7.719934E-1,-1.1014029E0,-9.02391E-1,-6.3540846E-1,-2.2708702E-1,-3.7815115E-1,-1.0256444E0,-9.805331E-1,-5.5881286E-1,-7.967234E-1,-4.9231482E-1,-1.1021941E0,-7.254034E-2,-6.0187215E-1,-9.620173E-1],"categories":[],"categories_nodes":[],"categories_segments":[],"categories_sizes":[],"default_left":[0,0,0,1,1,1,0,1,1,1,1,1,1,0,0,0,0,0,0,0,0,0,0,0,0],"id":16,"left_children":[1,3,5,7,9,11,-1,13,15,17,19,21,23,-1,-1,-1,-1,-1,-1,-1,-1,-1,-1,-1,-1],"loss_changes":[1.1665576E3,9.977429E1,9.066504E1,2.4139832E1,8.852295E0,1.0756836E0,0E0,1.3657593E1,1.3479233E1,2.2919312E0,5.960205E0,6.0302734E-1,9.1734314E-1,0E0,0E0,0E0,0E0,0E0,0E0,0E0,0E0,0E0,0E0,0E0,0E0],"parents":[2147483647,0,0,1,1,2,2,3,3,4,4,5,5,7,7,8,8,9,9,10,10,11,11,12,12],"right_children":[2,4,6,8,10,12,-1,14,16,18,20,22,24,-1,-1,-1,-1,-1,-1,-1,-1,-1,-1,-1,-1],"split_conditions":[2.75E0,1.25E0,3.75E0,1.5E0,1.06203005E-1,2.5E0,-4.7642156E-2,6.015873E-1,6.4115644E-1,3.640265E0,2.5E0,7.938183E-1,5E-1,-2.2565147E-2,-8.0645E-3,-1.3429213E-2,-3.6423527E-2,-3.4821495E-2,-1.984502E-2,-2.8293895E-2,-1.7483488E-2,-3.914202E-2,-2.576112E-3,-2.1374177E-2,-3.416395E-2],"split_indices":[3,3,3,9,13,7,0,13,14,8,9,13,2,0,0,0,0,0,0,0,0,0,0,0,0],"split_type":[0,0,0,0,0,0,0,0,0,0,0,0,0,0,0,0,0,0,0,0,0,0,0,0,0],"sum_hessian":[1.3424663E4,4.464854E3,8.959809E3,2.548567E3,1.916287E3,1.7805159E3,7.179293E3,1.5239242E3,1.0246427E3,6.260032E2,1.2902838E3,1.4884515E3,2.920643E2,1.4252554E3,9.866876E1,9.959409E2,2.8701765E1,5.768257E2,4.9177467E1,1.1723961E3,1.1788767E2,1.4867599E3,1.691648E0,6.2483555E1,2.2958076E2],"tree_param":{"num_deleted":"0","num_feature":"15","num_nodes":"25","size_leaf_vector":"0"}},{"base_weights":[-1.0586761E0,-6.422022E-1,-1.268275E0,-5.1215124E-1,-8.1328195E-1,-1.0499246E0,-1.3215873E0,-5.553636E-1,-2.822097E-1,-8.9235836E-1,-7.2213E-1,-1.0783806E0,-8.8122827E-1,-4.1255802E-1,-6.23858E-1,-2.0001934E-1,-5.431732E-1,-9.0134114E-1,-3.8283107E-1,-7.603994E-1,-5.063455E-1,-1.0791593E0,-7.208332E-2,-5.8655804E-1,-9.3994206E-1],"categories":[],"categories_nodes":[],"categories_segments":[],"categories_sizes":[],"default_left":[0,0,0,1,1,1,0,0,1,1,1,1,1,0,0,0,0,0,0,0,0,0,0,0,0],"id":17,"left_children":[1,3,5,7,9,11,-1,13,15,17,19,21,23,-1,-1,-1,-1,-1,-1,-1,-1,-1,-1,-1,-1],"loss_changes":[1.1488994E3,9.5712036E1,9.170801E1,2.4097961E1,8.788574E0,1.1550293E0,0E0,1.891101E1,8.1405945E0,1.8699951E0,4.686554E0,5.5688477E-1,8.904724E-1,0E0,0E0,0E0,0E0,0E0,0E0,0E0,0E0,0E0,0E0,0E0,0E0],"parents":[2147483647,0,0,1,1,2,2,3,3,4,4,5,5,7,7,8,8,9,9,10,10,11,11,12,12],"right_children":[2,4,6,8,10,12,-1,14,16,18,20,22,24,-1,-1,-1,-1,-1,-1,-1,-1,-1,-1,-1,-1],"split_conditions":[2.75E0,1.25E0,3.75E0,2.5E0,2.9046044E-1,2.5E0,-4.6933293E-2,2.5E-1,5E-1,2.5E0,2.5E0,7.938183E-1,5E-1,-1.4651098E-2,-2.2154955E-2,-7.103251E-3,-1.928961E-2,-3.2009166E-2,-1.3595411E-2,-2.7003927E-2,-1.7981756E-2,-3.8323987E-2,-2.559882E-3,-2.083033E-2,-3.3379994E-2],"split_indices":[3,3,3,7,14,7,0,3,6,12,7,13,2,0,0,0,0,0,0,0,0,0,0,0,0],"split_type":[0,0,0,0,0,0,0,0,0,0,0,0,0,0,0,0,0,0,0,0,0,0,0,0,0],"sum_hessian":[1.3225574E4,4.438171E3,8.787403E3,2.5388867E3,1.8992839E3,1.755719E3,7.0316846E3,2.1280764E3,4.1081036E2,9.808017E2,9.1848224E2,1.4668143E3,2.8890472E2,7.073437E2,1.4207328E3,3.227489E2,8.806146E1,9.579973E2,2.2804325E1,7.636368E2,1.5484543E2,1.4651237E3,1.6907012E0,6.204676E1,2.2685796E2],"tree_param":{"num_deleted":"0","num_feature":"15","num_nodes":"25","size_leaf_vector":"0"}},{"base_weights":[-1.0373021E0,-6.2354016E-1,-1.2484404E0,-4.9613178E-1,-7.9201573E-1,-1.0278717E0,-1.3026928E0,-5.5532587E-1,-3.2559523E-1,-9.110323E-1,-7.2938573E-1,-1.0561908E0,-8.607193E-1,-6.3220656E-1,-4.3186146E-1,-3.8798317E-1,-9.029009E-2,-9.3674743E-1,-5.244129E-1,-7.536212E-1,-4.579773E-1,-1.0569577E0,-7.1629405E-2,-5.716539E-1,-9.185792E-1],"categories":[],"categories_nodes":[],"categories_segments":[],"categories_sizes":[],"default_left":[0,0,0,1,1,1,0,1,1,1,1,1,1,0,0,0,0,0,0,0,0,0,0,0,0],"id":18,"left_children":[1,3,5,7,9,11,-1,13,15,17,19,21,23,-1,-1,-1,-1,-1,-1,-1,-1,-1,-1,-1,-1],"loss_changes":[1.1325566E3,9.182727E1,9.286914E1,2.421576E1,8.975342E0,1.236206E0,0E0,1.5670044E1,9.598572E0,2.392334E0,5.7435913E0,5.142822E-1,8.6828613E-1,0E0,0E0,0E0,0E0,0E0,0E0,0E0,0E0,0E0,0E0,0E0,0E0],"parents":[2147483647,0,0,1,1,2,2,3,3,4,4,5,5,7,7,8,8,9,9,10,10,11,11,12,12],"right_children":[2,4,6,8,10,12,-1,14,16,18,20,22,24,-1,-1,-1,-1,-1,-1,-1,-1,-1,-1,-1,-1],"split_conditions":[2.75E0,1.25E0,3.75E0,3.95E1,1.06203005E-1,2.5E0,-4.6262294E-2,1.5E0,3.3290176E0,3.640265E0,2.5E0,7.938183E-1,5E-1,-2.2451438E-2,-1.5336618E-2,-1.3778376E-2,-3.2064558E-3,-3.3266544E-2,-1.862338E-2,-2.6763214E-2,-1.6264066E-2,-3.753555E-2,-2.543762E-3,-2.0301042E-2,-3.262134E-2],"split_indices":[3,3,3,5,13,7,0,9,8,8,9,13,2,0,0,0,0,0,0,0,0,0,0,0,0],"split_type":[0,0,0,0,0,0,0,0,0,0,0,0,0,0,0,0,0,0,0,0,0,0,0,0,0],"sum_hessian":[1.3024947E4,4.411081E3,8.613866E3,2.5289368E3,1.8821442E3,1.7307505E3,6.883116E3,1.8644281E3,6.6450867E2,6.130174E2,1.2691267E3,1.4450199E3,2.857306E2,1.1294365E3,7.3499164E2,5.213015E2,1.4320715E2,5.6452386E2,4.8493538E1,1.152543E3,1.1658375E2,1.4433301E3,1.6897557E0,6.1611988E1,2.241186E2],"tree_param":{"num_deleted":"0","num_feature":"15","num_nodes":"25","size_leaf_vector":"0"}},{"base_weights":[-1.016653E0,-6.054386E-1,-1.2295136E0,-4.805805E-1,-7.7142483E-1,-1.0065553E0,-1.2847745E0,-3.393343E-1,-5.484882E-1,-8.0650204E-1,-5.8173746E-1,-1.0615774E0,-9.1049016E-1,-4.0601683E-1,-1.6854878E-1,-6.9886416E-1,-4.7609767E-1,-8.582513E-1,-6.703826E-1,-6.204575E-1,-2.806598E-1,-1.0657915E0,-3.4308055E-1,-9.419117E-1,-6.2729716E-1],"categories":[],"categories_nodes":[],"categories_segments":[],"categories_sizes":[],"default_left":[0,0,0,0,1,1,0,1,1,1,1,1,1,0,0,0,0,0,0,0,0,0,0,0,0],"id":19,"left_children":[1,3,5,7,9,11,-1,13,15,17,19,21,23,-1,-1,-1,-1,-1,-1,-1,-1,-1,-1,-1,-1],"loss_changes":[1.1174307E3,8.816565E1,9.4131836E1,2.2804565E1,8.850952E0,1.62146E0,0E0,9.046288E0,1.5880157E1,6.566345E0,2.389206E0,3.4558105E-1,1.4881592E0,0E0,0E0,0E0,0E0,0E0,0E0,0E0,0E0,0E0,0E0,0E0,0E0],"parents":[2147483647,0,0,1,1,2,2,3,3,4,4,5,5,7,7,8,8,9,9,10,10,11,11,12,12],"right_children":[2,4,6,8,10,12,-1,14,16,18,20,22,24,-1,-1,-1,-1,-1,-1,-1,-1,-1,-1,-1,-1],"split_conditions":[2.75E0,1.25E0,3.75E0,2.5E-1,2.5E0,1.5E0,-4.5625966E-2,3.95E1,2.3463088E-1,5E-1,1.285E2,7.571016E-1,1.85E1,-1.4418802E-2,-5.9856423E-3,-2.4818636E-2,-1.690757E-2,-3.0478923E-2,-2.3807177E-2,-2.2034194E-2,-9.967021E-3,-3.7849262E-2,-1.21837575E-2,-3.344994E-2,-2.227709E-2],"split_indices":[3,3,3,3,7,9,0,5,14,12,10,13,1,0,0,0,0,0,0,0,0,0,0,0,0],"split_type":[0,0,0,0,0,0,0,0,0,0,0,0,0,0,0,0,0,0,0,0,0,0,0,0,0],"sum_hessian":[1.282378E4,4.384045E3,8.439735E3,2.5190962E3,1.8649487E3,1.7056877E3,6.734048E3,8.3287305E2,1.6862233E3,1.5527914E3,3.1215735E2,1.0353632E3,6.7032465E2,5.913772E2,2.4149585E2,5.263249E2,1.1598983E3,1.0955005E3,4.5729092E2,2.6935684E2,4.28005E1,1.0256295E3,9.73359E0,5.8727155E2,8.30531E1],"tree_param":{"num_deleted":"0","num_feature":"15","num_nodes":"25","size_leaf_vector":"0"}},{"base_weights":[-9.966868E-1,-5.8790696E-1,-1.2114127E0,-4.6556497E-1,-7.514279E-1,-9.859098E-1,-1.2677523E0,-5.0781065E-1,-2.4235897E-1,-8.30372E-1,-6.611763E-1,-1.0146738E0,-8.1791824E-1,-6.2720984E-1,-4.241499E-1,-1.6258691E-1,-4.9898502E-1,-8.582755E-1,-5.9265053E-1,-6.9840604E-1,-4.5461786E-1,-1.0164024E0,-1.7863435E-1,-5.3285956E-1,-8.759974E-1],"categories":[],"categories_nodes":[],"categories_segments":[],"categories_sizes":[],"default_left":[0,0,0,1,1,1,0,1,1,1,1,1,1,0,0,0,0,0,0,0,0,0,0,0,0],"id":20,"left_children":[1,3,5,7,9,11,-1,13,15,17,19,21,23,-1,-1,-1,-1,-1,-1,-1,-1,-1,-1,-1,-1],"loss_changes":[1.1031455E3,8.462488E1,9.549512E1,2.2786194E1,8.996338E0,1.7746582E0,0E0,1.902356E1,7.8771267E0,2.4527588E0,4.5053406E0,6.405029E-1,1.1526794E0,0E0,0E0,0E0,0E0,0E0,0E0,0E0,0E0,0E0,0E0,0E0,0E0],"parents":[2147483647,0,0,1,1,2,2,3,3,4,4,5,5,7,7,8,8,9,9,10,10,11,11,12,12],"right_children":[2,4,6,8,10,12,-1,14,16,18,20,22,24,-1,-1,-1,-1,-1,-1,-1,-1,-1,-1,-1,-1],"split_conditions":[2.75E0,1.25E0,3.75E0,2.5E0,2.9046044E-1,2.5E0,-4.502146E-2,1.8217894E-1,5E-1,4.35E1,2.5E0,4.024541E0,5E-1,-2.227399E-2,-1.5062759E-2,-5.7739196E-3,-1.7720366E-2,-3.0479783E-2,-2.1046693E-2,-2.4802368E-2,-1.6144762E-2,-3.6095314E-2,-6.3438094E-3,-1.8923346E-2,-3.110914E-2],"split_indices":[3,3,3,7,14,7,0,13,6,5,7,8,2,0,0,0,0,0,0,0,0,0,0,0,0],"split_type":[0,0,0,0,0,0,0,0,0,0,0,0,0,0,0,0,0,0,0,0,0,0,0,0,0],"sum_hessian":[1.2622521E4,4.356905E3,8.265617E3,2.5091897E3,1.8477151E3,1.6807241E3,6.584893E3,2.101614E3,4.075755E2,9.519507E2,8.9576447E2,1.401915E3,2.7880902E2,8.4527466E2,1.2563395E3,3.2051077E2,8.706475E1,8.33979E2,1.1797168E2,7.434498E2,1.523146E2,1.3973665E3,4.5486116E0,6.0438343E1,2.1837067E2],"tree_param":{"num_deleted":"0","num_feature":"15","num_nodes":"25","size_leaf_vector":"0"}},{"base_weights":[-9.773401E-1,-5.709059E-1,-1.1940749E0,-4.5101994E-1,-7.320179E-1,-9.658935E-1,-1.2515527E0,-5.083046E-1,-2.8680235E-1,-8.5161686E-1,-6.6971123E-1,-1.0213385E0,-8.6962336E-1,-5.6652284E-1,-3.5125822E-1,-4.402825E-1,-1.9366089E-1,-8.773214E-1,-4.744386E-1,-6.9369906E-1,-4.055454E-1,-1.0255692E0,-3.1985962E-1,-9.0115434E-1,-5.8886474E-1],"categories":[],"categories_nodes":[],"categories_segments":[],"categories_sizes":[],"default_left":[0,0,0,1,1,1,0,1,1,1,1,1,1,0,0,0,0,0,0,0,0,0,0,0,0],"id":21,"left_children":[1,3,5,7,9,11,-1,13,15,17,19,21,23,-1,-1,-1,-1,-1,-1,-1,-1,-1,-1,-1,-1],"loss_changes":[1.0896348E3,8.124097E1,9.6927734E1,2.2462585E1,9.311157E0,2.0463867E0,0E0,1.5371826E1,8.865044E0,2.6281433E0,5.7228394E0,4.7827148E-1,1.7578735E0,0E0,0E0,0E0,0E0,0E0,0E0,0E0,0E0,0E0,0E0,0E0,0E0],"parents":[2147483647,0,0,1,1,2,2,3,3,4,4,5,5,7,7,8,8,9,9,10,10,11,11,12,12],"right_children":[2,4,6,8,10,12,-1,14,16,18,20,22,24,-1,-1,-1,-1,-1,-1,-1,-1,-1,-1,-1,-1],"split_conditions":[2.75E0,1.25E0,3.75E0,3.95E1,1.06203005E-1,1.5E0,-4.4446167E-2,4.5452195E-1,1.0463158E-1,3.640265E0,2.5E0,7.571016E-1,1.85E1,-2.0118823E-2,-1.247417E-2,-1.5635673E-2,-6.877444E-3,-3.1156158E-2,-1.6848654E-2,-2.463521E-2,-1.4402061E-2,-3.6420856E-2,-1.1359117E-2,-3.200253E-2,-2.0912247E-2],"split_indices":[3,3,3,5,13,9,0,13,13,8,9,13,1,0,0,0,0,0,0,0,0,0,0,0,0],"split_type":[0,0,0,0,0,0,0,0,0,0,0,0,0,0,0,0,0,0,0,0,0,0,0,0,0],"sum_hessian":[1.2421619E4,4.3298945E3,8.091724E3,2.4993298E3,1.8305647E3,1.6557018E3,6.4360225E3,1.8410066E3,6.5832324E2,5.936304E2,1.2369343E3,1.00371484E3,6.5198694E2,1.3284747E3,5.1253186E2,2.3780109E2,4.205222E2,5.462065E2,4.7423897E1,1.1224973E3,1.1443702E2,9.94165E2,9.54986E0,5.708762E2,8.1110725E1],"tree_param":{"num_deleted":"0","num_feature":"15","num_nodes":"25","size_leaf_vector":"0"}},{"base_weights":[-9.585533E-1,-5.543874E-1,-1.1774288E0,-4.368996E-1,-7.1315634E-1,-9.4644415E-1,-1.23611E0,-2.9831266E-1,-5.039606E-1,-8.3168125E-1,-6.5163404E-1,-9.756948E-1,-7.774321E-1,-3.4031904E-1,-3.9106425E-2,-6.1670375E-1,-4.1365618E-1,-8.570158E-1,-4.6223962E-1,-6.7515975E-1,-3.9369947E-1,-9.7742E-1,-1.6568679E-1,-4.960895E-1,-8.358041E-1],"categories":[],"categories_nodes":[],"categories_segments":[],"categories_sizes":[],"default_left":[0,0,0,0,1,1,0,1,1,1,1,1,1,0,0,0,0,0,0,0,0,0,0,0,0],"id":22,"left_children":[1,3,5,7,9,11,-1,13,15,17,19,21,23,-1,-1,-1,-1,-1,-1,-1,-1,-1,-1,-1,-1],"loss_changes":[1.0768145E3,7.8013306E1,9.843848E1,2.2052948E1,9.110596E0,2.265503E0,0E0,8.969902E0,1.5058441E1,2.516449E0,5.4456177E0,6.640625E-1,1.4022369E0,0E0,0E0,0E0,0E0,0E0,0E0,0E0,0E0,0E0,0E0,0E0,0E0],"parents":[2147483647,0,0,1,1,2,2,3,3,4,4,5,5,7,7,8,8,9,9,10,10,11,11,12,12],"right_children":[2,4,6,8,10,12,-1,14,16,18,20,22,24,-1,-1,-1,-1,-1,-1,-1,-1,-1,-1,-1,-1],"split_conditions":[2.75E0,1.25E0,3.75E0,2.5E-1,1.06203005E-1,2.5E0,-4.389775E-2,1.385E2,2.717248E-1,3.640265E0,2.5E0,4.024541E0,5E-1,-1.2085688E-2,-1.3887794E-3,-2.1900889E-2,-1.4690097E-2,-3.0435048E-2,-1.6415432E-2,-2.3976827E-2,-1.3981379E-2,-3.471094E-2,-5.884005E-3,-1.7617537E-2,-2.968176E-2],"split_indices":[3,3,3,3,13,7,0,10,14,8,9,8,2,0,0,0,0,0,0,0,0,0,0,0,0],"split_type":[0,0,0,0,0,0,0,0,0,0,0,0,0,0,0,0,0,0,0,0,0,0,0,0,0],"sum_hessian":[1.2221684E4,4.3030454E3,7.918638E3,2.4896123E3,1.8134333E3,1.6308685E3,6.28777E3,8.2551984E2,1.6640924E3,5.867478E2,1.2266855E3,1.3589607E3,2.7190787E2,7.083234E2,1.1719642E2,7.2015485E2,9.4393756E2,5.395931E2,4.715476E1,1.1127509E3,1.1393464E2,1.354486E3,4.4747205E0,5.9275944E1,2.1263191E2],"tree_param":{"num_deleted":"0","num_feature":"15","num_nodes":"25","size_leaf_vector":"0"}},{"base_weights":[-9.4030166E-1,-5.383634E-1,-1.161424E0,-4.2323345E-1,-6.94811E-1,-9.275303E-1,-1.221364E0,-4.6473646E-1,-2.0547956E-1,-7.73138E-1,-6.060258E-1,-9.8352027E-1,-8.3088636E-1,-5.798362E-1,-3.845452E-1,-1.2774882E-1,-4.5884869E-1,-8.012966E-1,-5.366837E-1,-7.420629E-1,-5.4159E-1,-9.8777944E-1,-2.9781917E-1,-8.625808E-1,-5.5224764E-1],"categories":[],"categories_nodes":[],"categories_segments":[],"categories_sizes":[],"default_left":[0,0,0,1,1,1,0,1,1,1,1,1,1,0,0,0,0,0,0,0,0,0,0,0,0],"id":23,"left_children":[1,3,5,7,9,11,-1,13,15,17,19,21,23,-1,-1,-1,-1,-1,-1,-1,-1,-1,-1,-1,-1],"loss_changes":[1.0644238E3,7.48988E1,9.999707E1,2.1746094E1,8.941895E0,2.446289E0,0E0,1.7512695E1,7.6632557E0,2.8881226E0,4.632599E0,5.9887695E-1,2.0013123E0,0E0,0E0,0E0,0E0,0E0,0E0,0E0,0E0,0E0,0E0,0E0,0E0],"parents":[2147483647,0,0,1,1,2,2,3,3,4,4,5,5,7,7,8,8,9,9,10,10,11,11,12,12],"right_children":[2,4,6,8,10,12,-1,14,16,18,20,22,24,-1,-1,-1,-1,-1,-1,-1,-1,-1,-1,-1,-1],"split_conditions":[2.75E0,1.25E0,3.75E0,2.5E0,2.9046044E-1,1.5E0,-4.337408E-2,1.8217894E-1,5E-1,4.35E1,3.1201298E0,7.571016E-1,1.85E1,-2.0591618E-2,-1.3656285E-2,-4.536721E-3,-1.629501E-2,-2.8456302E-2,-1.9059151E-2,-2.6352746E-2,-1.9233387E-2,-3.5078835E-2,-1.0576398E-2,-3.0632677E-2,-1.961187E-2],"split_indices":[3,3,3,7,14,9,0,13,6,5,8,13,1,0,0,0,0,0,0,0,0,0,0,0,0],"split_type":[0,0,0,0,0,0,0,0,0,0,0,0,0,0,0,0,0,0,0,0,0,0,0,0,0],"sum_hessian":[1.2022721E4,4.2762046E3,7.7465156E3,2.4798105E3,1.7963939E3,1.6060854E3,6.14043E3,2.0755032E3,4.0430737E2,9.229061E2,8.734878E2,9.722365E2,6.3384894E2,8.3257196E2,1.2429313E3,3.182444E2,8.6062965E1,8.082757E2,1.1463042E2,2.5475468E2,6.187331E2,9.62867E2,9.369515E0,5.546394E2,7.920952E1],"tree_param":{"num_deleted":"0","num_feature":"15","num_nodes":"25","size_leaf_vector":"0"}},{"base_weights":[-9.225353E-1,-5.2281624E-1,-1.1460004E0,-4.1000795E-1,-6.769574E-1,-9.0910274E-1,-1.2072604E0,-4.6605432E-1,-2.5013497E-1,-7.123386E-1,-4.8979634E-1,-9.3886906E-1,-7.3896724E-1,-5.2244645E-1,-3.1481913E-1,-3.097535E-1,-2.9829603E-2,-7.6475734E-1,-5.767916E-1,-5.290941E-1,-1.9927086E-1,-9.8955834E-1,-8.340591E-1,-4.611622E-1,-7.9768E-1],"categories":[],"categories_nodes":[],"categories_segments":[],"categories_sizes":[],"default_left":[0,0,0,1,1,1,0,1,1,1,1,1,1,0,0,0,0,0,0,0,0,0,0,0,0],"id":24,"left_children":[1,3,5,7,9,11,-1,13,15,17,19,21,23,-1,-1,-1,-1,-1,-1,-1,-1,-1,-1,-1,-1],"loss_changes":[1.052374E3,7.18938E1,1.0161133E2,2.1304993E1,9.151428E0,2.7115479E0,0E0,1.4305328E1,8.594456E0,7.166687E0,2.714264E0,6.8640137E-1,1.6195221E0,0E0,0E0,0E0,0E0,0E0,0E0,0E0,0E0,0E0,0E0,0E0,0E0],"parents":[2147483647,0,0,1,1,2,2,3,3,4,4,5,5,7,7,8,8,9,9,10,10,11,11,12,12],"right_children":[2,4,6,8,10,12,-1,14,16,18,20,22,24,-1,-1,-1,-1,-1,-1,-1,-1,-1,-1,-1,-1],"split_conditions":[2.75E0,1.25E0,3.75E0,3.95E1,2.5E0,2.5E0,-4.287322E-2,4.5452195E-1,3.3290176E0,5E-1,1.285E2,1.5E0,5E-1,-1.8553548E-2,-1.1180115E-2,-1.1000221E-2,-1.0593333E-3,-2.7158689E-2,-2.0483496E-2,-1.8789623E-2,-7.07667E-3,-3.514201E-2,-2.961979E-2,-1.637717E-2,-2.8327867E-2],"split_indices":[3,3,3,5,7,7,0,13,8,12,10,9,2,0,0,0,0,0,0,0,0,0,0,0,0],"split_type":[0,0,0,0,0,0,0,0,0,0,0,0,0,0,0,0,0,0,0,0,0,0,0,0,0],"sum_hessian":[1.1825532E4,4.249681E3,7.575851E3,2.4700942E3,1.7795868E3,1.5815829E3,5.994268E3,1.8180221E3,6.5207227E2,1.4785035E3,3.010832E2,1.3164967E3,2.6508618E2,1.3104897E3,5.0753226E2,5.1073502E2,1.4133723E2,1.0404379E3,4.3806573E2,2.596457E2,4.143749E1,8.4358093E2,4.7291577E2,5.8133583E1,2.0695259E2],"tree_param":{"num_deleted":"0","num_feature":"15","num_nodes":"25","size_leaf_vector":"0"}},{"base_weights":[-9.0520996E-1,-5.0766253E-1,-1.1311295E0,-3.9713782E-1,-6.5953803E-1,-8.9120895E-1,-1.1937488E0,-2.6119816E-1,-4.633375E-1,-7.7832836E-1,-5.98521E-1,-9.209305E-1,-7.222165E-1,-3.022029E-1,-1.0581324E-2,-6.077121E-1,-3.9465234E-1,-8.03743E-1,-4.1713446E-1,-6.217932E-1,-3.4769714E-1,-9.291668E-1,-5.030911E-1,-4.4941562E-1,-7.8021747E-1],"categories":[],"categories_nodes":[],"categories_segments":[],"categories_sizes":[],"default_left":[0,0,0,0,1,1,0,1,1,1,1,1,1,0,0,0,0,0,0,0,0,0,0,0,0],"id":25,"left_children":[1,3,5,7,9,11,-1,13,15,17,19,21,23,-1,-1,-1,-1,-1,-1,-1,-1,-1,-1,-1,-1],"loss_changes":[1.0408242E3,6.900769E1,1.0320996E2,2.1281189E1,9.249695E0,2.7445068E0,0E0,8.46347E0,1.4516815E1,2.7012024E0,5.359131E0,8.881836E-1,1.5705566E0,0E0,0E0,0E0,0E0,0E0,0E0,0E0,0E0,0E0,0E0,0E0,0E0],"parents":[2147483647,0,0,1,1,2,2,3,3,4,4,5,5,7,7,8,8,9,9,10,10,11,11,12,12],"right_children":[2,4,6,8,10,12,-1,14,16,18,20,22,24,-1,-1,-1,-1,-1,-1,-1,-1,-1,-1,-1,-1],"split_conditions":[2.75E0,1.25E0,3.75E0,2.5E-1,1.06203005E-1,2.5E0,-4.2393386E-2,1.385E2,2.3463088E-1,3.640265E0,2.5E0,6.9951457E-1,5E-1,-1.0732077E-2,-3.7577265E-4,-2.158157E-2,-1.4015217E-2,-2.854318E-2,-1.48136215E-2,-2.208163E-2,-1.2347706E-2,-3.2997333E-2,-1.7866183E-2,-1.5960015E-2,-2.7707722E-2],"split_indices":[3,3,3,3,13,7,0,10,14,8,9,13,2,0,0,0,0,0,0,0,0,0,0,0,0],"split_type":[0,0,0,0,0,0,0,0,0,0,0,0,0,0,0,0,0,0,0,0,0,0,0,0,0],"sum_hessian":[1.1630193E4,4.223368E3,7.4068247E3,2.460552E3,1.7628162E3,1.5573073E3,5.8495176E3,8.1827814E2,1.6422739E3,5.6751904E2,1.195297E3,1.2952736E3,2.6203372E2,7.018598E2,1.16418335E2,5.0996707E2,1.1323069E3,5.214065E2,4.6112587E1,1.0833988E3,1.1189823E2,1.2610037E3,3.4269848E1,5.7742767E1,2.0429095E2],"tree_param":{"num_deleted":"0","num_feature":"15","num_nodes":"25","size_leaf_vector":"0"}},{"base_weights":[-8.883092E-1,-4.9296945E-1,-1.1167445E0,-3.846981E-1,-6.425851E-1,-8.7370056E-1,-1.1807839E0,-4.253686E-1,-1.727916E-1,-7.603164E-1,-5.82347E-1,-9.3029916E-1,-7.769381E-1,-5.3710496E-1,-3.4796897E-1,-9.716043E-2,-4.2243606E-1,-7.853915E-1,-4.0638578E-1,-6.712638E-1,-5.0735587E-1,-9.346104E-1,-2.6734233E-1,-8.09346E-1,-4.9787807E-1],"categories":[],"categories_nodes":[],"categories_segments":[],"categories_sizes":[],"default_left":[0,0,0,1,1,1,0,1,1,1,1,1,1,0,0,0,0,0,0,0,0,0,0,0,0],"id":26,"left_children":[1,3,5,7,9,11,-1,13,15,17,19,21,23,-1,-1,-1,-1,-1,-1,-1,-1,-1,-1,-1,-1],"loss_changes":[1.0293193E3,6.62146E1,1.0486426E2,2.0624542E1,9.032776E0,2.8792725E0,0E0,1.6356628E1,7.4039316E0,2.590088E0,5.335968E0,7.4554443E-1,2.4654236E0,0E0,0E0,0E0,0E0,0E0,0E0,0E0,0E0,0E0,0E0,0E0,0E0],"parents":[2147483647,0,0,1,1,2,2,3,3,4,4,5,5,7,7,8,8,9,9,10,10,11,11,12,12],"right_children":[2,4,6,8,10,12,-1,14,16,18,20,22,24,-1,-1,-1,-1,-1,-1,-1,-1,-1,-1,-1,-1],"split_conditions":[2.75E0,1.25E0,3.75E0,2.5E0,1.06203005E-1,1.5E0,-4.1932967E-2,1.8217894E-1,5E-1,3.640265E0,2.9046044E-1,7.571016E-1,1.85E1,-1.9074112E-2,-1.2357359E-2,-3.4504407E-3,-1.5001896E-2,-2.7891466E-2,-1.4431905E-2,-2.3838472E-2,-1.8017638E-2,-3.3190653E-2,-9.49408E-3,-2.8742159E-2,-1.7681055E-2],"split_indices":[3,3,3,7,13,9,0,13,6,8,14,13,1,0,0,0,0,0,0,0,0,0,0,0,0],"split_type":[0,0,0,0,0,0,0,0,0,0,0,0,0,0,0,0,0,0,0,0,0,0,0,0,0],"sum_hessian":[1.1436879E4,4.1972446E3,7.239635E3,2.4510098E3,1.7462347E3,1.5332493E3,5.7063853E3,2.0498418E3,4.011681E2,5.607968E2,1.185438E3,9.255881E2,6.0766113E2,8.2015497E2,1.2296869E3,3.160923E2,8.507579E1,5.149374E2,4.5859406E1,5.143777E2,6.710603E2,9.1647614E2,9.111965E0,5.313382E2,7.632296E1],"tree_param":{"num_deleted":"0","num_feature":"15","num_nodes":"25","size_leaf_vector":"0"}},{"base_weights":[-8.717918E-1,-4.7870505E-1,-1.1028007E0,-3.7265122E-1,-6.2607783E-1,-8.5654414E-1,-1.1683236E0,-2.3982061E-1,-4.3762636E-1,-6.614491E-1,-4.4142962E-1,-8.868194E-1,-6.8630767E-1,-4.4316083E-1,-1.169336E0,-2.7977118E-1,2.898526E-3,-5.78748E-1,-3.7078828E-1,-7.1338665E-1,-5.285571E-1,-4.8067006E-1,-1.5910211E-1,-9.383759E-1,-7.81272E-1,-4.1686788E-1,-7.446958E-1,-6.087543E-1,2.340882E-1],"categories":[],"categories_nodes":[],"categories_segments":[],"categories_sizes":[],"default_left":[0,0,0,0,1,1,1,1,1,1,1,1,1,1,0,0,0,0,0,0,0,0,0,0,0,0,0,0,0],"id":27,"left_children":[1,3,5,7,9,11,13,15,17,19,21,23,25,27,-1,-1,-1,-1,-1,-1,-1,-1,-1,-1,-1,-1,-1,-1,-1],"loss_changes":[1.01785254E3,6.3523438E1,1.06578125E2,2.0331573E1,9.102539E0,3.1379395E0,1.0449219E-1,7.9726677E0,1.3774994E1,7.0578613E0,2.7626495E0,1.2268677E0,1.7512207E0,3.3565137E0,0E0,0E0,0E0,0E0,0E0,0E0,0E0,0E0,0E0,0E0,0E0,0E0,0E0,0E0,0E0],"parents":[2147483647,0,0,1,1,2,2,3,3,4,4,5,5,6,6,7,7,8,8,9,9,10,10,11,11,12,12,13,13],"right_children":[2,4,6,8,10,12,14,16,18,20,22,24,26,28,-1,-1,-1,-1,-1,-1,-1,-1,-1,-1,-1,-1,-1,-1,-1],"split_conditions":[2.75E0,1.25E0,3.75E0,2.5E-1,2.5E0,2.5E0,5.882353E-3,1.385E2,2.3463088E-1,5E-1,1.285E2,1.5E0,5E-1,3.704819E-2,-4.152642E-2,-9.935464E-3,1.0293483E-4,-2.0552972E-2,-1.3167737E-2,-2.5334371E-2,-1.8770553E-2,-1.7069949E-2,-5.6501646E-3,-3.3324376E-2,-2.7745172E-2,-1.4804154E-2,-2.6446247E-2,-2.161858E-2,8.313132E-3],"split_indices":[3,3,3,3,7,7,14,10,14,12,10,9,2,11,0,0,0,0,0,0,0,0,0,0,0,0,0,0,0],"split_type":[0,0,0,0,0,0,0,0,0,0,0,0,0,0,0,0,0,0,0,0,0,0,0,0,0,0,0,0,0],"sum_hessian":[1.1246055E4,4.1714736E3,7.0745806E3,2.441582E3,1.7298918E3,1.5095278E3,5.5650527E3,8.138629E2,1.627719E3,1.4351172E3,2.9477463E2,1.2541135E3,2.5541434E2,1.2462693E1,5.55259E3,6.9782886E2,1.1603405E2,5.0421243E2,1.1235066E3,1.00768634E3,4.274309E2,2.5405913E2,4.0715504E1,8.017759E2,4.5233762E2,5.6642445E1,1.987719E2,1.0639272E1,1.8234221E0],"tree_param":{"num_deleted":"0","num_feature":"15","num_nodes":"29","size_leaf_vector":"0"}},{"base_weights":[-8.5563624E-1,-4.648048E-1,-1.0892934E0,-3.6095586E-1,-6.099254E-1,-8.398349E-1,-1.1563351E0,-4.158237E-1,-2.0544696E-1,-7.0767784E-1,-5.383722E-1,-8.700743E-1,-6.707335E-1,-4.3538153E-1,-1.1573575E0,-4.8898813E-1,-3.009143E-1,-2.633185E-1,5.452296E-3,-7.1743363E-1,-1.872915E-1,-5.7323956E-1,-3.4760702E-1,-9.2161936E-1,-7.6492184E-1,-4.0618074E-1,-7.284263E-1,-6.008444E-1,2.3226734E-1],"categories":[],"categories_nodes":[],"categories_segments":[],"categories_sizes":[],"default_left":[0,0,0,1,1,1,1,1,1,1,1,1,1,1,0,0,0,0,0,0,0,0,0,0,0,0,0,0,0],"id":28,"left_children":[1,3,5,7,9,11,13,15,17,19,21,23,25,27,-1,-1,-1,-1,-1,-1,-1,-1,-1,-1,-1,-1,-1,-1,-1],"loss_changes":[1.0066167E3,6.090497E1,1.0825293E2,2.016159E1,9.10968E0,3.1495361E0,1.2890625E-1,1.3968353E1,7.9634266E0,2.535614E0,5.291931E0,1.3052979E0,1.6951675E0,3.2857165E0,0E0,0E0,0E0,0E0,0E0,0E0,0E0,0E0,0E0,0E0,0E0,0E0,0E0,0E0,0E0],"parents":[2147483647,0,0,1,1,2,2,3,3,4,4,5,5,6,6,7,7,8,8,9,9,10,10,11,11,12,12,13,13],"right_children":[2,4,6,8,10,12,14,16,18,20,22,24,26,28,-1,-1,-1,-1,-1,-1,-1,-1,-1,-1,-1,-1,-1,-1,-1],"split_conditions":[2.75E0,1.25E0,3.75E0,3.95E1,2.5872213E-1,2.5E0,5.882353E-3,1.5E0,3.3290176E0,2.5E0,2.5E0,1.5E0,5E-1,3.704819E-2,-4.1101027E-2,-1.7365348E-2,-1.0686315E-2,-9.351183E-3,1.9362642E-4,-2.5478091E-2,-6.6512492E-3,-2.0357354E-2,-1.2344506E-2,-3.27293E-2,-2.7164532E-2,-1.4424623E-2,-2.5868472E-2,-2.1337679E-2,8.248468E-3],"split_indices":[3,3,3,5,14,7,14,9,8,12,7,9,2,11,0,0,0,0,0,0,0,0,0,0,0,0,0,0,0],"split_type":[0,0,0,0,0,0,0,0,0,0,0,0,0,0,0,0,0,0,0,0,0,0,0,0,0,0,0,0,0],"sum_hessian":[1.1057849E4,4.1459814E3,6.911867E3,2.432266E3,1.7137155E3,1.4861266E3,5.4257407E3,1.7883945E3,6.438717E2,6.95361E2,1.01835443E3,1.2336361E3,2.5249046E2,1.23328905E1,5.4134077E3,1.0773738E3,7.110208E2,5.037334E2,1.4013829E2,6.7970575E2,1.565531E1,8.479473E2,1.704071E2,7.8775555E2,4.4588058E2,5.6277363E1,1.962131E2,1.0500298E1,1.832593E0],"tree_param":{"num_deleted":"0","num_feature":"15","num_nodes":"29","size_leaf_vector":"0"}},{"base_weights":[-8.3980536E-1,-4.512722E-1,-1.0761666E0,-3.4959528E-1,-5.941551E-1,-8.234705E-1,-1.1447774E0,-3.8934156E-1,-1.4393298E-1,-7.1202284E-1,-5.3449136E-1,-8.5367733E-1,-6.554928E-1,-4.2775193E-1,-1.1458108E0,-2.610138E-1,-4.5272473E-1,-7.059975E-2,-3.889417E-1,-7.3714834E-1,-3.664354E-1,-5.5763406E-1,-2.9071477E-1,-8.622298E-1,-4.3722558E-1,-3.957471E-1,-7.1250075E-1,-5.9307116E-1,2.3045611E-1],"categories":[],"categories_nodes":[],"categories_segments":[],"categories_sizes":[],"default_left":[0,0,0,1,1,1,1,0,1,1,1,1,1,1,0,0,0,0,0,0,0,0,0,0,0,0,0,0,0],"id":29,"left_children":[1,3,5,7,9,11,13,15,17,19,21,23,25,27,-1,-1,-1,-1,-1,-1,-1,-1,-1,-1,-1,-1,-1,-1,-1],"loss_changes":[9.9543604E2,5.8381775E1,1.09938965E2,1.9439026E1,9.066162E0,3.1583252E0,1.5429688E-1,1.5623718E1,7.0815973E0,2.6979065E0,5.315155E0,1.4494629E0,1.6410446E0,3.2164876E0,0E0,0E0,0E0,0E0,0E0,0E0,0E0,0E0,0E0,0E0,0E0,0E0,0E0,0E0,0E0],"parents":[2147483647,0,0,1,1,2,2,3,3,4,4,5,5,6,6,7,7,8,8,9,9,10,10,11,11,12,12,13,13],"right_children":[2,4,6,8,10,12,14,16,18,20,22,24,26,28,-1,-1,-1,-1,-1,-1,-1,-1,-1,-1,-1,-1,-1,-1,-1],"split_conditions":[2.75E0,1.25E0,3.75E0,2.5E0,1.06203005E-1,2.5E0,5.882353E-3,2.5E-1,5E-1,3.640265E0,2.5E0,6.9951457E-1,5E-1,3.704819E-2,-4.0690973E-2,-9.269336E-3,-1.6077532E-2,-2.5071963E-3,-1.3812417E-2,-2.6178217E-2,-1.3013154E-2,-1.9803157E-2,-1.0324101E-2,-3.0620212E-2,-1.5527113E-2,-1.4054095E-2,-2.5302911E-2,-2.1061629E-2,8.184146E-3],"split_indices":[3,3,3,7,13,7,14,3,6,8,9,13,2,11,0,0,0,0,0,0,0,0,0,0,0,0,0,0,0],"split_type":[0,0,0,0,0,0,0,0,0,0,0,0,0,0,0,0,0,0,0,0,0,0,0,0,0,0,0,0,0],"sum_hessian":[1.0872481E4,4.1208936E3,6.7515884E3,2.4231025E3,1.6977908E3,1.4630667E3,5.2885215E3,2.0249004E3,3.982022E2,5.4231714E2,1.1554736E3,1.213455E3,2.4961177E2,1.2205123E1,5.2763164E3,6.8248553E2,1.3424148E3,3.1409863E2,8.410358E1,4.9743604E2,4.48811E1,1.0462455E3,1.0922816E2,1.1809678E3,3.2487175E1,5.5919155E1,1.9369261E2,1.0363425E1,1.8416977E0],"tree_param":{"num_deleted":"0","num_feature":"15","num_nodes":"29","size_leaf_vector":"0"}},{"base_weights":[-8.242968E-1,-4.3814665E-1,-1.0633811E0,-3.3861482E-1,-5.7879025E-1,-8.073862E-1,-1.1336176E0,-3.9216697E-1,-1.8739913E-1,-6.755917E-1,-5.083667E-1,-8.646976E-1,-7.107823E-1,-4.2026842E-1,-1.1346632E0,-4.4694537E-1,-2.4691398E-1,-3.3143595E-1,-1.0222146E-1,-6.852671E-1,-1.707577E-1,-5.4272985E-1,-3.2227007E-1,-8.722044E-1,-3.2173854E-1,-7.44459E-1,-4.288973E-1,-5.8543056E-1,2.286545E-1],"categories":[],"categories_nodes":[],"categories_segments":[],"categories_sizes":[],"default_left":[0,0,0,1,1,1,1,1,1,1,1,1,1,1,0,0,0,0,0,0,0,0,0,0,0,0,0,0,0],"id":30,"left_children":[1,3,5,7,9,11,13,15,17,19,21,23,25,27,-1,-1,-1,-1,-1,-1,-1,-1,-1,-1,-1,-1,-1,-1,-1],"loss_changes":[9.8404346E2,5.593878E1,1.1165674E2,1.9044922E1,8.8776245E0,3.2891235E0,1.8164062E-1,1.3324219E1,7.690176E0,2.4616394E0,5.1085815E0,1.40094E0,3.0725403E0,3.1487854E0,0E0,0E0,0E0,0E0,0E0,0E0,0E0,0E0,0E0,0E0,0E0,0E0,0E0,0E0,0E0],"parents":[2147483647,0,0,1,1,2,2,3,3,4,4,5,5,6,6,7,7,8,8,9,9,10,10,11,11,12,12,13,13],"right_children":[2,4,6,8,10,12,14,16,18,20,22,24,26,28,-1,-1,-1,-1,-1,-1,-1,-1,-1,-1,-1,-1,-1,-1,-1],"split_conditions":[2.75E0,1.25E0,3.75E0,3.95E1,2.5872213E-1,1.5E0,5.882353E-3,4.5452195E-1,1.0463158E-1,2.5E0,2.5E0,2.5E0,1.85E1,3.704819E-2,-4.029509E-2,-1.587229E-2,-8.768612E-3,-1.1770225E-2,-3.6301722E-3,-2.4335766E-2,-6.064087E-3,-1.9273868E-2,-1.1444719E-2,-3.0974438E-2,-1.14258425E-2,-2.6437838E-2,-1.5231352E-2,-2.079029E-2,8.120166E-3],"split_indices":[3,3,3,5,14,9,14,13,13,12,7,12,1,11,0,0,0,0,0,0,0,0,0,0,0,0,0,0,0],"split_type":[0,0,0,0,0,0,0,0,0,0,0,0,0,0,0,0,0,0,0,0,0,0,0,0,0,0,0,0,0],"sum_hessian":[1.0689894E4,4.096055E3,6.5938384E3,2.4139463E3,1.6821091E3,1.4403263E3,5.153512E3,1.7735846E3,6.4036163E2,6.805499E2,1.00155914E3,8.6562415E2,5.7470215E2,1.2079396E1,5.1414326E3,1.2762885E3,4.9729608E2,2.2969849E2,4.1066312E2,6.6505457E2,1.5495375E1,8.330021E2,1.6855707E2,8.4921844E2,1.6405687E1,5.0209415E2,7.2608025E1,1.022866E1,1.8507363E0],"tree_param":{"num_deleted":"0","num_feature":"15","num_nodes":"29","size_leaf_vector":"0"}},{"base_weights":[-8.090486E-1,-4.2534015E-1,-1.050904E0,-3.2793206E-1,-5.6375486E-1,-7.9156905E-1,-1.1228255E0,-2.0103392E-1,-3.9054754E-1,-6.812152E-1,-5.047323E-1,-8.223078E-1,-6.22576E-1,-4.129275E-1,-1.1238842E0,-2.3997995E-1,3.2835796E-2,-4.9709484E-1,-3.0667666E-1,-7.2009426E-1,-4.3595323E-1,-5.922976E-1,-4.3204552E-1,-8.748927E-1,-7.162125E-1,-3.6596698E-1,-6.8001264E-1,-5.7791895E-1,2.268626E-1],"categories":[],"categories_nodes":[],"categories_segments":[],"categories_sizes":[],"default_left":[0,0,0,0,1,1,1,1,1,1,1,1,1,1,0,0,0,0,0,0,0,0,0,0,0,0,0,0,0],"id":31,"left_children":[1,3,5,7,9,11,13,15,17,19,21,23,25,27,-1,-1,-1,-1,-1,-1,-1,-1,-1,-1,-1,-1,-1,-1,-1],"loss_changes":[9.7268945E2,5.3581177E1,1.1340283E2,1.8568054E1,8.963379E0,3.4680786E0,2.0898438E-1,7.466213E0,1.3192139E1,2.715088E0,5.3135376E0,1.7762451E0,1.7864227E0,3.0825672E0,0E0,0E0,0E0,0E0,0E0,0E0,0E0,0E0,0E0,0E0,0E0,0E0,0E0,0E0,0E0],"parents":[2147483647,0,0,1,1,2,2,3,3,4,4,5,5,6,6,7,7,8,8,9,9,10,10,11,11,12,12,13,13],"right_children":[2,4,6,8,10,12,14,16,18,20,22,24,26,28,-1,-1,-1,-1,-1,-1,-1,-1,-1,-1,-1,-1,-1,-1,-1],"split_conditions":[2.75E0,1.25E0,3.75E0,2.5E-1,1.06203005E-1,2.5E0,5.882353E-3,1.385E2,2.717248E-1,3.3512506E0,2.9046044E-1,1.5E0,5E-1,3.704819E-2,-3.99123E-2,-8.522365E-3,1.1660918E-3,-1.765324E-2,-1.0890953E-2,-2.5572577E-2,-1.5481928E-2,-2.1034159E-2,-1.5343155E-2,-3.1069906E-2,-2.5434725E-2,-1.2996519E-2,-2.4149166E-2,-2.0523531E-2,8.056531E-3],"split_indices":[3,3,3,3,13,7,14,10,14,8,14,9,2,11,0,0,0,0,0,0,0,0,0,0,0,0,0,0,0],"split_type":[0,0,0,0,0,0,0,0,0,0,0,0,0,0,0,0,0,0,0,0,0,0,0,0,0,0,0,0,0],"sum_hessian":[1.0510701E4,4.0718506E3,6.4388506E3,2.4051587E3,1.6666919E3,1.4180355E3,5.020815E3,8.053681E2,1.5997905E3,5.302852E2,1.1364066E3,1.1746384E3,2.4339703E2,1.1955719E1,5.0088594E3,6.9022485E2,1.1514325E2,6.879448E2,9.118457E2,4.448715E2,8.541373E1,4.905068E2,6.458999E2,7.481074E2,4.2653104E2,5.4886505E1,1.8851053E2,1.009601E1,1.8597083E0],"tree_param":{"num_deleted":"0","num_feature":"15","num_nodes":"29","size_leaf_vector":"0"}},{"base_weights":[-7.9409754E-1,-4.1291648E-1,-1.0387377E0,-3.175782E-1,-5.4913497E-1,-7.7611625E-1,-1.1123726E0,-3.5656363E-1,-1.1721021E-1,-6.6543794E-1,-4.909348E-1,-8.354614E-1,-6.794824E-1,-4.0572572E-1,-1.1134453E0,-5.034117E-1,-3.0060893E-1,-3.528059E-2,-3.3124092E-1,-6.7533493E-1,-7.974221E-2,-5.227735E-1,-3.1369498E-1,-8.402456E-1,-1.7164637E-1,-6.8902826E-1,-1.9803509E-1,-5.705324E-1,2.2508046E-1],"categories":[],"categories_nodes":[],"categories_segments":[],"categories_sizes":[],"default_left":[0,0,0,1,1,1,1,1,1,1,1,1,1,1,0,0,0,0,0,0,0,0,0,0,0,0,0,0,0],"id":32,"left_children":[1,3,5,7,9,11,13,15,17,19,21,23,25,27,-1,-1,-1,-1,-1,-1,-1,-1,-1,-1,-1,-1,-1,-1,-1],"loss_changes":[9.6114453E2,5.13291E1,1.150791E2,1.8457932E1,8.718506E0,3.6837158E0,2.3828125E-1,1.5341537E1,6.9774785E0,2.668167E0,5.1446533E0,1.5461426E0,1.5943604E0,3.017799E0,0E0,0E0,0E0,0E0,0E0,0E0,0E0,0E0,0E0,0E0,0E0,0E0,0E0,0E0,0E0],"parents":[2147483647,0,0,1,1,2,2,3,3,4,4,5,5,6,6,7,7,8,8,9,9,10,10,11,11,12,12,13,13],"right_children":[2,4,6,8,10,12,14,16,18,20,22,24,26,28,-1,-1,-1,-1,-1,-1,-1,-1,-1,-1,-1,-1,-1,-1,-1],"split_conditions":[2.75E0,1.25E0,3.75E0,2.5E0,1.06203005E-1,3.1096095E-1,5.882353E-3,4.0678434E-2,2.11566E-1,3.5E0,4.35E1,7.571016E-1,3.962143E0,3.704819E-2,-3.9541584E-2,-1.787757E-2,-1.0675471E-2,-1.2529131E-3,-1.1763299E-2,-2.3983048E-2,-2.8318707E-3,-1.8565161E-2,-1.1140194E-2,-2.9839491E-2,-6.095647E-3,-2.4469336E-2,-7.0327846E-3,-2.0261213E-2,7.993242E-3],"split_indices":[3,3,3,7,13,14,14,13,11,7,5,13,8,11,0,0,0,0,0,0,0,0,0,0,0,0,0,0,0],"split_type":[0,0,0,0,0,0,0,0,0,0,0,0,0,0,0,0,0,0,0,0,0,0,0,0,0,0,0,0,0],"sum_hessian":[1.0334627E4,4.047998E3,6.286629E3,2.3964016E3,1.6515966E3,1.3961134E3,4.8905156E3,2.0010604E3,3.9534106E2,5.2407184E2,1.1275248E3,8.284999E2,5.676135E2,1.1834093E1,4.878681E3,5.3513464E2,1.4659259E3,2.923801E2,1.02960976E2,5.142056E2,9.866215E0,9.431113E2,1.8441342E2,8.205416E2,7.9582515E0,5.533258E2,1.4287707E1,9.96548E0,1.8686137E0],"tree_param":{"num_deleted":"0","num_feature":"15","num_nodes":"29","size_leaf_vector":"0"}},{"base_weights":[-7.7936745E-1,-4.0079767E-1,-1.0268102E0,-3.0754754E-1,-5.3476477E-1,-7.608047E-1,-1.1022329E0,-3.598447E-1,-1.6062014E-1,-5.7005286E-1,-3.552392E-1,-7.921247E-1,-5.9056324E-1,-3.9865994E-1,-1.1033206E0,-4.3064594E-1,-2.498349E-1,-2.158732E-1,3.7609402E-2,-6.225268E-1,-4.3856815E-1,-3.9483505E-1,-8.554331E-2,-8.4551203E-1,-6.852287E-1,-3.3846635E-1,-6.4807713E-1,-5.632677E-1,2.2330813E-1],"categories":[],"categories_nodes":[],"categories_segments":[],"categories_sizes":[],"default_left":[0,0,0,1,1,1,1,1,1,1,1,1,1,1,0,0,0,0,0,0,0,0,0,0,0,0,0,0,0],"id":33,"left_children":[1,3,5,7,9,11,13,15,17,19,21,23,25,27,-1,-1,-1,-1,-1,-1,-1,-1,-1,-1,-1,-1,-1,-1,-1],"loss_changes":[9.494658E2,4.9108643E1,1.1683447E2,1.7962692E1,8.860138E0,3.7718506E0,2.6708984E-1,1.2884766E1,7.1022434E0,7.2942505E0,2.8429642E0,2.0773926E0,1.8652039E0,2.9544408E0,0E0,0E0,0E0,0E0,0E0,0E0,0E0,0E0,0E0,0E0,0E0,0E0,0E0,0E0,0E0],"parents":[2147483647,0,0,1,1,2,2,3,3,4,4,5,5,6,6,7,7,8,8,9,9,10,10,11,11,12,12,13,13],"right_children":[2,4,6,8,10,12,14,16,18,20,22,24,26,28,-1,-1,-1,-1,-1,-1,-1,-1,-1,-1,-1,-1,-1,-1,-1],"split_conditions":[2.75E0,1.25E0,3.75E0,3.95E1,2.5E0,2.5E0,5.882353E-3,1.5E0,3.3290176E0,5E-1,1.285E2,1.5E0,5E-1,3.704819E-2,-3.9182026E-2,-1.5293452E-2,-8.872341E-3,-7.666266E-3,1.3356159E-3,-2.2107683E-2,-1.55747915E-2,-1.4021706E-2,-3.0378841E-3,-3.0026516E-2,-2.4334403E-2,-1.2019894E-2,-2.3015046E-2,-2.0003224E-2,7.930301E-3],"split_indices":[3,3,3,5,7,7,14,9,8,12,10,9,2,11,0,0,0,0,0,0,0,0,0,0,0,0,0,0,0],"split_type":[0,0,0,0,0,0,0,0,0,0,0,0,0,0,0,0,0,0,0,0,0,0,0,0,0,0,0,0,0],"sum_hessian":[1.0161914E4,4.0246455E3,6.137268E3,2.3878752E3,1.6367703E3,1.3745852E3,4.762683E3,1.752828E3,6.350472E2,1.3539087E3,2.8286154E2,1.13726E3,2.3732529E2,1.1714516E1,4.7509683E3,1.0528221E3,7.0000586E2,4.9608688E2,1.3896031E2,9.4717487E2,4.0673376E2,2.4353702E2,3.932453E1,7.230124E2,4.1424756E2,5.3924187E1,1.834011E2,9.837064E0,1.877452E0],"tree_param":{"num_deleted":"0","num_feature":"15","num_nodes":"29","size_leaf_vector":"0"}},{"base_weights":[-7.6489335E-1,-3.889967E-1,-1.0151548E0,-2.9779273E-1,-5.207408E-1,-7.458778E-1,-1.0923821E0,-1.7359693E-1,-3.5943702E-1,-6.169317E-1,-4.515983E-1,-8.057757E-1,-6.489647E-1,-3.9172712E-1,-1.0934854E0,-2.4379049E-1,-4.764823E-2,-4.9503E-1,-2.961286E-1,-6.2666327E-1,-1.3369249E-1,-4.8523176E-1,-2.7322498E-1,-8.106218E-1,-1.5545578E-1,-6.280552E-2,-6.5483797E-1,-5.5612147E-1,2.215456E-1],"categories":[],"categories_nodes":[],"categories_segments":[],"categories_sizes":[],"default_left":[0,0,0,0,1,1,1,1,1,1,1,1,1,1,0,0,0,0,0,0,0,0,0,0,0,0,0,0,0],"id":34,"left_children":[1,3,5,7,9,11,13,15,17,19,21,23,25,27,-1,-1,-1,-1,-1,-1,-1,-1,-1,-1,-1,-1,-1,-1,-1],"loss_changes":[9.377041E2,4.6981506E1,1.18475586E2,1.7795944E1,8.69693E0,3.8790283E0,2.9638672E-1,7.042597E0,1.2505173E1,2.4621277E0,4.8412323E0,1.581543E0,1.6097107E0,2.8924592E0,0E0,0E0,0E0,0E0,0E0,0E0,0E0,0E0,0E0,0E0,0E0,0E0,0E0,0E0,0E0],"parents":[2147483647,0,0,1,1,2,2,3,3,4,4,5,5,6,6,7,7,8,8,9,9,10,10,11,11,12,12,13,13],"right_children":[2,4,6,8,10,12,14,16,18,20,22,24,26,28,-1,-1,-1,-1,-1,-1,-1,-1,-1,-1,-1,-1,-1,-1,-1],"split_conditions":[2.75E0,1.25E0,3.75E0,2.5E-1,2.5872213E-1,3.1096095E-1,5.882353E-3,3.6453468E-1,2.3463088E-1,2.5E0,2.5E0,7.571016E-1,3.144009E-1,3.704819E-2,-3.883275E-2,-8.657688E-3,-1.692123E-3,-1.7579911E-2,-1.0516361E-2,-2.225458E-2,-4.7477973E-3,-1.7231949E-2,-9.70299E-3,-2.8787466E-2,-5.520673E-3,-2.2304012E-3,-2.3255143E-2,-1.9749442E-2,7.867709E-3],"split_indices":[3,3,3,3,14,14,14,13,14,12,7,13,14,11,0,0,0,0,0,0,0,0,0,0,0,0,0,0,0],"split_type":[0,0,0,0,0,0,0,0,0,0,0,0,0,0,0,0,0,0,0,0,0,0,0,0,0,0,0,0,0],"sum_hessian":[9.992493E3,4.0016306E3,5.990863E3,2.3794578E3,1.622173E3,1.3534873E3,4.6373755E3,7.990175E2,1.5804402E3,6.529073E2,9.692657E2,8.0171576E2,5.5177155E2,1.1596985E1,4.625779E3,5.0845108E2,2.9056644E2,4.8634262E2,1.0940975E3,6.3778046E2,1.5126829E1,8.043642E2,1.649015E2,7.9390356E2,7.8122077E0,6.3662305E0,5.454053E2,9.710761E0,1.8862232E0],"tree_param":{"num_deleted":"0","num_feature":"15","num_nodes":"29","size_leaf_vector":"0"}},{"base_weights":[-7.506322E-1,-3.7753326E-1,-1.0036885E0,-2.883645E-1,-5.0703263E-1,-7.3104423E-1,-1.0827972E0,-3.263462E-1,-9.4472505E-2,-6.230146E-1,-4.4962102E-1,-7.629942E-1,-5.5933326E-1,-3.849242E-1,-1.083917E0,-3.4619418E-1,4.181854E-2,-2.3587098E-2,-3.3645067E-1,-6.677236E-1,-4.0231615E-1,-5.365848E-1,-3.7834436E-1,-8.171954E-1,-6.5531385E-1,-3.109696E-1,-6.1714E-1,-5.490906E-1,2.19793E-1],"categories":[],"categories_nodes":[],"categories_segments":[],"categories_sizes":[],"default_left":[0,0,0,1,1,1,1,1,1,1,1,1,1,1,0,0,0,0,0,0,0,0,0,0,0,0,0,0,0],"id":35,"left_children":[1,3,5,7,9,11,13,15,17,19,21,23,25,27,-1,-1,-1,-1,-1,-1,-1,-1,-1,-1,-1,-1,-1,-1,-1],"loss_changes":[9.255791E2,4.4911438E1,1.20197754E2,1.72816E1,8.602814E0,4.071289E0,3.2470703E-1,1.4624176E1,6.80848E0,3.0149841E0,5.308075E0,2.3535767E0,1.9567184E0,2.8318207E0,0E0,0E0,0E0,0E0,0E0,0E0,0E0,0E0,0E0,0E0,0E0,0E0,0E0,0E0,0E0],"parents":[2147483647,0,0,1,1,2,2,3,3,4,4,5,5,6,6,7,7,8,8,9,9,10,10,11,11,12,12,13,13],"right_children":[2,4,6,8,10,12,14,16,18,20,22,24,26,28,-1,-1,-1,-1,-1,-1,-1,-1,-1,-1,-1,-1,-1,-1,-1],"split_conditions":[2.75E0,1.25E0,3.75E0,2.5E0,1.06203005E-1,2.5E0,5.882353E-3,3.5931711E0,5E-1,3.2791753E0,2.9046044E-1,1.5E0,5E-1,3.704819E-2,-3.849295E-2,-1.2294332E-2,1.4850943E-3,-8.376444E-4,-1.1948312E-2,-2.3712749E-2,-1.4287381E-2,-1.9055638E-2,-1.3436075E-2,-2.9020913E-2,-2.3272043E-2,-1.1043407E-2,-2.1916382E-2,-1.9499756E-2,7.8054694E-3],"split_indices":[3,3,3,7,13,7,14,8,6,8,14,9,2,11,0,0,0,0,0,0,0,0,0,0,0,0,0,0,0],"split_type":[0,0,0,0,0,0,0,0,0,0,0,0,0,0,0,0,0,0,0,0,0,0,0,0,0,0,0,0,0],"sum_hessian":[9.826486E3,3.9790527E3,5.847434E3,2.3711694E3,1.6078832E3,1.3327953E3,4.5146387E3,1.97837E3,3.9279956E2,5.072871E2,1.1005961E3,1.1013754E3,2.3141994E2,1.1481491E1,4.503157E3,1.8776061E3,1.00763824E2,3.1033246E2,8.246709E1,4.088764E2,9.841072E1,4.73125E2,6.2747107E2,6.988982E2,4.024772E2,5.295864E1,1.7846129E2,9.586564E0,1.894927E0],"tree_param":{"num_deleted":"0","num_feature":"15","num_nodes":"29","size_leaf_vector":"0"}},{"base_weights":[-7.365959E-1,-4.5137474E-1,-1.0708444E0,-2.8085983E-1,-5.94645E-1,-3.9858028E-1,-1.0720005E0,-3.4492004E-1,-1.6359092E-1,-4.9053955E-1,-7.108951E-1,-5.571771E-1,2.1805032E-1,-2.1225703E-1,-4.0540248E-1,-3.5277134E-1,-1.0181438E-1,-6.166485E-1,-4.3261066E-1,-8.0186826E-1,-6.414939E-1],"categories":[],"categories_nodes":[],"categories_segments":[],"categories_sizes":[],"default_left":[0,0,1,1,0,1,0,0,1,1,1,0,0,0,0,0,0,0,0,0,0],"id":36,"left_children":[1,3,5,7,9,11,-1,13,15,17,19,-1,-1,-1,-1,-1,-1,-1,-1,-1,-1],"loss_changes":[9.1834375E2,1.2653027E2,1.7041016E-1,1.7621063E1,3.1642212E1,2.8787975E0,0E0,1.1754044E1,9.817875E0,9.059998E0,4.3950195E0,0E0,0E0,0E0,0E0,0E0,0E0,0E0,0E0,0E0,0E0],"parents":[2147483647,0,0,1,1,2,2,3,3,4,4,5,5,7,7,8,8,9,9,10,10],"right_children":[2,4,6,8,10,12,-1,14,16,18,20,-1,-1,-1,-1,-1,-1,-1,-1,-1,-1],"split_conditions":[3.25E0,1.75E0,5.882353E-3,3.75E1,2.25E0,3.704819E-2,-3.8069762E-2,2.5E-1,2.2564831E-1,2.2460446E-1,2.2761425E-1,-1.9786932E-2,7.7435817E-3,-7.5378455E-3,-1.4396985E-2,-1.2527905E-2,-3.6157158E-3,-2.1898927E-2,-1.5363225E-2,-2.8476603E-2,-2.2781258E-2],"split_indices":[3,3,14,5,3,11,0,3,14,14,13,0,0,0,0,0,0,0,0,0,0],"split_type":[0,0,0,0,0,0,0,0,0,0,0,0,0,0,0,0,0,0,0,0,0],"sum_hessian":[9.664141E3,5.224255E3,4.4398853E3,2.3957249E3,2.82853E3,1.2188323E1,4.4276973E3,1.5397021E3,8.560226E2,1.5133927E3,1.3151375E3,1.02847595E1,1.9035635E0,4.930115E2,1.0466907E3,2.0180229E2,6.542203E2,4.530119E2,1.0603807E3,5.339866E2,7.811508E2],"tree_param":{"num_deleted":"0","num_feature":"15","num_nodes":"21","size_leaf_vector":"0"}},{"base_weights":[-7.227186E-1,-4.39012E-1,-1.0616338E0,-2.7194288E-1,-5.805391E-1,-3.916113E-1,-1.0628083E0,-3.422937E-1,-1.6846573E-1,-4.7741795E-1,-6.964549E-1,-5.5000997E-1,2.1631758E-1,-1.0173166E0,-1.1079539E0,-3.6696416E-1,7.6771546E-3,-1.4208385E-1,-8.640324E-1,-6.018902E-1,-4.2046925E-1,-7.5793475E-1,-5.960361E-1,-1.0191122E0,-2.2330576E-1,-1.1084833E0,-8.661269E-2],"categories":[],"categories_nodes":[],"categories_segments":[],"categories_sizes":[],"default_left":[0,0,1,1,0,1,0,1,1,1,1,0,0,1,1,0,0,0,0,0,0,0,0,0,0,0,0],"id":37,"left_children":[1,3,5,7,9,11,13,15,17,19,21,-1,-1,23,25,-1,-1,-1,-1,-1,-1,-1,-1,-1,-1,-1,-1],"loss_changes":[9.1111816E2,1.21535706E2,2.055664E-1,1.6993744E1,3.0956665E1,2.8175988E0,1.9580078E-1,1.2268478E1,1.712296E1,8.744385E0,4.570801E0,0E0,0E0,1.4494629E0,3.869629E-1,0E0,0E0,0E0,0E0,0E0,0E0,0E0,0E0,0E0,0E0,0E0,0E0],"parents":[2147483647,0,0,1,1,2,2,3,3,4,4,5,5,6,6,7,7,8,8,9,9,10,10,13,13,14,14],"right_children":[2,4,6,8,10,12,14,16,18,20,22,-1,-1,24,26,-1,-1,-1,-1,-1,-1,-1,-1,-1,-1,-1,-1],"split_conditions":[3.25E0,1.75E0,5.882353E-3,1.5E0,2.25E0,3.704819E-2,5.75E0,6.015873E-1,6.4115644E-1,2.2460446E-1,1.5E0,-1.9532405E-2,7.6820473E-3,4.200164E0,6.666667E-1,-1.30319325E-2,2.726374E-4,-5.045798E-3,-3.0684227E-2,-2.1374818E-2,-1.49320485E-2,-2.69164E-2,-2.1166923E-2,-3.619155E-2,-7.930217E-3,-3.936537E-2,-3.0758607E-3],"split_indices":[3,3,14,9,3,11,3,13,14,14,9,0,0,8,11,0,0,0,0,0,0,0,0,0,0,0,0],"split_type":[0,0,0,0,0,0,0,0,0,0,0,0,0,0,0,0,0,0,0,0,0,0,0,0,0,0,0],"sum_hessian":[9.505359E3,5.1837173E3,4.3216426E3,2.3876416E3,2.7960757E3,1.2063548E1,4.309579E3,1.4107584E3,9.7688306E2,1.5005383E3,1.2955375E3,1.0151416E1,1.9121321E0,2.2367307E3,2.0728481E3,1.3175099E3,9.3248535E1,9.501103E2,2.6772745E1,4.479187E2,1.0526196E3,7.723256E2,5.232119E2,2.229508E3,7.2227473E0,2.0711184E3,1.7298404E0],"tree_param":{"num_deleted":"0","num_feature":"15","num_nodes":"27","size_leaf_vector":"0"}},{"base_weights":[-7.090587E-1,-4.2695218E-1,-1.0526512E0,-2.6332295E-1,-5.666994E-1,-3.8477078E-1,-1.0538447E0,-1.4266384E-1,-3.224837E-1,-4.6459335E-1,-6.8223906E-1,-5.4295605E-1,2.145948E-1,-1.0075039E0,-1.0999482E0,-1.8111046E-1,8.388193E-2,-4.2459077E-1,-2.4267484E-1,-5.630919E-1,-3.953209E-1,-7.740419E-1,-6.127028E-1,-1.0093215E0,-2.2007878E-1,-1.1004865E0,-8.608338E-2],"categories":[],"categories_nodes":[],"categories_segments":[],"categories_sizes":[],"default_left":[0,0,1,0,0,1,0,1,1,1,1,0,0,1,1,0,0,0,0,0,0,0,0,0,0,0,0],"id":38,"left_children":[1,3,5,7,9,11,13,15,17,19,21,-1,-1,23,25,-1,-1,-1,-1,-1,-1,-1,-1,-1,-1,-1,-1],"loss_changes":[9.0362305E2,1.1665692E2,2.4023438E-1,1.668869E1,3.0263977E1,2.757727E0,4.5263672E-1,7.0785294E0,1.2212524E1,8.49292E0,4.548645E0,0E0,0E0,1.4216309E0,3.7524414E-1,0E0,0E0,0E0,0E0,0E0,0E0,0E0,0E0,0E0,0E0,0E0,0E0],"parents":[2147483647,0,0,1,1,2,2,3,3,4,4,5,5,6,6,7,7,8,8,9,9,10,10,13,13,14,14],"right_children":[2,4,6,8,10,12,14,16,18,20,22,-1,-1,24,26,-1,-1,-1,-1,-1,-1,-1,-1,-1,-1,-1,-1],"split_conditions":[3.25E0,1.75E0,5.882353E-3,2.5E-1,2.25E0,3.704819E-2,5.75E0,1.385E2,2.717248E-1,2.5872213E-1,2.2761425E-1,-1.9281901E-2,7.6208664E-3,4.200164E0,6.666667E-1,-6.431743E-3,2.978884E-3,-1.5078415E-2,-8.618068E-3,-1.999698E-2,-1.40389595E-2,-2.748841E-2,-2.1758804E-2,-3.584385E-2,-7.815618E-3,-3.908138E-2,-3.0570636E-3],"split_indices":[3,3,14,3,3,11,3,10,14,14,13,0,0,8,11,0,0,0,0,0,0,0,0,0,0,0,0],"split_type":[0,0,0,0,0,0,0,0,0,0,0,0,0,0,0,0,0,0,0,0,0,0,0,0,0,0,0],"sum_hessian":[9.350431E3,5.144111E3,4.20632E3,2.3798013E3,2.7643098E3,1.1941038E1,4.194379E3,7.9158844E2,1.5882129E3,1.4879688E3,1.276341E3,1.0020405E1,1.9206331E0,2.1794753E3,2.0149034E3,6.780592E2,1.13529274E2,6.821901E2,9.0602277E2,5.917392E2,8.962296E2,5.165065E2,7.598345E2,2.1722935E3,7.1819196E0,2.0131774E3,1.7260326E0],"tree_param":{"num_deleted":"0","num_feature":"15","num_nodes":"27","size_leaf_vector":"0"}},{"base_weights":[-6.955766E-1,-4.1515854E-1,-1.0438561E0,-2.5491264E-1,-5.5311674E-1,-9.974451E-1,-1.0900782E0,-3.1746578E-1,-1.4091805E-1,-4.5205656E-1,-6.6823065E-1,-9.992791E-1,-2.1690066E-1,-1.808369E-1,-1.0921762E0,-3.7088203E-1,-1.7669883E-1,-2.8537327E-1,-6.531873E-2,-4.8832732E-1,-2.7193624E-1,-7.302787E-1,-5.677112E-1,-1.0000637E0,-1.0645943E-1,-3.2113642E-1,6.2346388E-2,2.9509333E-1,-3.993866E-1,-1.0927237E0,-8.5558094E-2],"categories":[],"categories_nodes":[],"categories_segments":[],"categories_sizes":[],"default_left":[0,0,0,1,0,1,1,1,1,1,1,1,1,1,1,0,0,0,0,0,0,0,0,0,0,0,0,0,0,0,0],"id":39,"left_children":[1,3,5,7,9,11,13,15,17,19,21,23,25,27,29,-1,-1,-1,-1,-1,-1,-1,-1,-1,-1,-1,-1,-1,-1,-1,-1],"loss_changes":[8.958203E2,1.1194885E2,4.345703E-1,1.662468E1,2.9563232E1,1.3918457E0,2.2424316E0,1.100325E1,9.215479E0,8.669495E0,4.7026367E0,6.7285156E-1,5.857973E-1,2.3376443E0,3.642578E-1,0E0,0E0,0E0,0E0,0E0,0E0,0E0,0E0,0E0,0E0,0E0,0E0,0E0,0E0,0E0,0E0],"parents":[2147483647,0,0,1,1,2,2,3,3,4,4,5,5,6,6,7,7,8,8,9,9,10,10,11,11,12,12,13,13,14,14],"right_children":[2,4,6,8,10,12,14,16,18,20,22,24,26,28,30,-1,-1,-1,-1,-1,-1,-1,-1,-1,-1,-1,-1,-1,-1,-1,-1],"split_conditions":[3.25E0,1.75E0,5.75E0,3.75E1,2.25E0,4.200164E0,5.882353E-3,4.5452195E-1,9.4788864E-2,2.5E0,1.5E0,5.5E0,6.05E1,1.4E1,6.666667E-1,-1.31710665E-2,-6.2750736E-3,-1.0134409E-2,-2.3196524E-3,-1.734188E-2,-9.657223E-3,-2.5934255E-2,-2.0161025E-2,-3.551508E-2,-3.7806747E-3,-1.1404459E-2,2.214096E-3,1.0479596E-2,-1.4183345E-2,-3.88057E-2,-3.0384092E-3],"split_indices":[3,3,3,5,3,8,14,13,13,7,9,12,10,1,11,0,0,0,0,0,0,0,0,0,0,0,0,0,0,0,0],"split_type":[0,0,0,0,0,0,0,0,0,0,0,0,0,0,0,0,0,0,0,0,0,0,0,0,0,0,0,0,0,0,0],"sum_hessian":[9.198926E3,5.105269E3,4.0936567E3,2.3719856E3,2.7332832E3,2.1293208E3,1.964336E3,1.5226951E3,8.4929047E2,1.4756705E3,1.2576127E3,2.122179E3,7.1418014E0,6.065952E0,1.95827E3,1.0947136E3,4.2798138E2,2.8443918E2,5.648513E2,1.2173673E3,2.5830334E2,7.4781433E2,5.0979837E2,2.1193923E3,2.7865298E0,4.360303E0,2.7814987E0,1.0611032E0,5.0048485E0,1.9565479E3,1.7222526E0],"tree_param":{"num_deleted":"0","num_feature":"15","num_nodes":"31","size_leaf_vector":"0"}},{"base_weights":[-6.8226194E-1,-4.0363413E-1,-1.0352287E0,-2.4675846E-1,-5.3977853E-1,-9.879146E-1,-1.0824784E0,-2.8373998E-1,-6.002828E-2,-4.3978512E-1,-6.544302E-1,-9.906794E-1,-3.2012215E-1,-1.770418E-1,-1.0846207E0,-3.0398998E-1,8.5555024E-2,9.997171E-3,-3.0335182E-1,-5.599786E-1,-3.81028E-1,-7.470192E-1,-5.848118E-1,-9.914765E-1,-1.055332E-1,-4.2769107E-1,7.176771E-2,2.9359013E-1,-3.953146E-1,-1.085178E0,-8.503676E-2],"categories":[],"categories_nodes":[],"categories_segments":[],"categories_sizes":[],"default_left":[0,0,0,1,0,1,1,1,1,1,1,1,1,1,1,0,0,0,0,0,0,0,0,0,0,0,0,0,0,0,0],"id":40,"left_children":[1,3,5,7,9,11,13,15,17,19,21,23,25,27,29,-1,-1,-1,-1,-1,-1,-1,-1,-1,-1,-1,-1,-1,-1,-1,-1],"loss_changes":[8.876797E2,1.07367676E2,6.9677734E-1,1.6250229E1,2.8861511E1,1.4049072E0,2.2407227E0,1.4991806E1,6.8712163E0,8.74942E0,4.677429E0,6.555176E-1,1.077117E0,2.301884E0,3.544922E-1,0E0,0E0,0E0,0E0,0E0,0E0,0E0,0E0,0E0,0E0,0E0,0E0,0E0,0E0,0E0,0E0],"parents":[2147483647,0,0,1,1,2,2,3,3,4,4,5,5,6,6,7,7,8,8,9,9,10,10,11,11,12,12,13,13,14,14],"right_children":[2,4,6,8,10,12,14,16,18,20,22,24,26,28,30,-1,-1,-1,-1,-1,-1,-1,-1,-1,-1,-1,-1,-1,-1,-1,-1],"split_conditions":[3.25E0,1.75E0,5.75E0,2.5E0,2.25E0,4.108402E0,5.882353E-3,3.5931711E0,5E-1,1.06203005E-1,2.2761425E-1,5.5E0,6.1E1,1.4E1,6.666667E-1,-1.0795541E-2,3.0383002E-3,3.5502773E-4,-1.0772878E-2,-1.988642E-2,-1.35313785E-2,-2.6528757E-2,-2.0768316E-2,-3.5210125E-2,-3.7477815E-3,-1.5188516E-2,2.5486737E-3,1.0426213E-2,-1.4038736E-2,-3.8537733E-2,-3.0198952E-3],"split_indices":[3,3,3,7,3,8,14,8,6,13,13,12,10,1,11,0,0,0,0,0,0,0,0,0,0,0,0,0,0,0,0],"split_type":[0,0,0,0,0,0,0,0,0,0,0,0,0,0,0,0,0,0,0,0,0,0,0,0,0,0,0,0,0,0,0],"sum_hessian":[9.051042E3,5.0673916E3,3.9836504E3,2.3644878E3,2.7029038E3,2.074675E3,1.9089756E3,1.9702815E3,3.9420642E2,1.463613E3,1.2392909E3,2.062417E3,1.2257933E1,6.0248547E0,1.9029507E3,1.8691484E3,1.01133064E2,3.1183926E2,8.236715E1,4.590214E2,1.0045916E3,4.997721E2,7.395188E2,2.0596382E3,2.7788122E0,9.0665455E0,3.1913872E0,1.0679237E0,4.956931E0,1.9012322E3,1.7184998E0],"tree_param":{"num_deleted":"0","num_feature":"15","num_nodes":"31","size_leaf_vector":"0"}},{"base_weights":[-6.6911477E-1,-3.923762E-1,-1.0267589E0,-2.3881423E-1,-5.26701E-1,-9.7851187E-1,-1.0750773E0,-1.21030286E-1,-2.9688743E-1,-4.2781934E-1,-6.4082485E-1,-9.813103E-1,-3.151619E-1,-1.7331818E-1,-1.0772659E0,-1.5850517E-1,9.798012E-2,-3.9663753E-1,-2.1936247E-1,-5.516105E-1,-3.7190545E-1,-7.0338356E-1,-5.4031706E-1,-9.8211694E-1,-1.0461627E-1,-4.2205143E-1,7.09816E-2,2.9208857E-1,-3.9130068E-1,-1.077833E0,-8.451936E-2],"categories":[],"categories_nodes":[],"categories_segments":[],"categories_sizes":[],"default_left":[0,0,0,0,0,1,1,1,1,1,1,1,1,1,1,0,0,0,0,0,0,0,0,0,0,0,0,0,0,0,0],"id":41,"left_children":[1,3,5,7,9,11,13,15,17,19,21,23,25,27,29,-1,-1,-1,-1,-1,-1,-1,-1,-1,-1,-1,-1,-1,-1,-1,-1],"loss_changes":[8.791968E2,1.0295453E2,9.6240234E-1,1.5899048E1,2.8145569E1,1.3875732E0,2.239746E0,6.63542E0,1.1538071E1,8.524567E0,4.8048706E0,6.3586426E-1,1.0499771E0,2.2666984E0,3.4472656E-1,0E0,0E0,0E0,0E0,0E0,0E0,0E0,0E0,0E0,0E0,0E0,0E0,0E0,0E0,0E0,0E0],"parents":[2147483647,0,0,1,1,2,2,3,3,4,4,5,5,6,6,7,7,8,8,9,9,10,10,11,11,12,12,13,13,14,14],"right_children":[2,4,6,8,10,12,14,16,18,20,22,24,26,28,30,-1,-1,-1,-1,-1,-1,-1,-1,-1,-1,-1,-1,-1,-1,-1,-1],"split_conditions":[3.25E0,1.75E0,5.75E0,2.5E-1,2.25E0,4.108402E0,5.882353E-3,1.385E2,2.717248E-1,2.2460446E-1,1.5E0,5.5E0,6.1E1,1.4E1,6.666667E-1,-5.628966E-3,3.4795504E-3,-1.40857175E-2,-7.79018E-3,-1.9589245E-2,-1.3207411E-2,-2.4979133E-2,-1.9188182E-2,-3.4877744E-2,-3.7152187E-3,-1.4988236E-2,2.5207568E-3,1.0372888E-2,-1.3896191E-2,-3.8276892E-2,-3.0015206E-3],"split_indices":[3,3,3,3,3,8,14,10,14,14,9,12,10,1,11,0,0,0,0,0,0,0,0,0,0,0,0,0,0,0,0],"split_type":[0,0,0,0,0,0,0,0,0,0,0,0,0,0,0,0,0,0,0,0,0,0,0,0,0,0,0,0,0,0,0],"sum_hessian":[8.906741E3,5.0304224E3,3.8763188E3,2.3571094E3,2.6733132E3,2.0213893E3,1.8549296E3,7.862209E2,1.5708884E3,1.4518766E3,1.2214368E3,2.0092261E3,1.2163239E1,5.9844093E0,1.8489452E3,6.731614E2,1.1305953E2,6.731253E2,8.9776306E2,4.305222E2,1.0213544E3,7.2440607E2,4.9703064E2,2.0064548E3,2.7711737E0,8.966015E0,3.1972241E0,1.0747166E0,4.909693E0,1.8472305E3,1.7147744E0],"tree_param":{"num_deleted":"0","num_feature":"15","num_nodes":"31","size_leaf_vector":"0"}},{"base_weights":[-6.56142E-1,-3.8139904E-1,-1.0184305E0,-2.311408E-1,-5.1385885E-1,-9.6922E-1,-1.0678598E0,-2.8057283E-1,-9.438077E-2,-4.1611636E-1,-6.274144E-1,-9.720529E-1,-3.1028742E-1,-1.6966477E-1,-1.0700961E0,-3.3191863E-1,-1.4731193E-1,-1.9194712E-1,1.1013279E-2,-4.5247984E-1,-2.3763512E-1,-6.614296E-1,-4.5030874E-1,-9.728693E-1,-1.0370858E-1,-4.1649318E-1,7.020357E-2,2.9058883E-1,-3.8734376E-1,-1.0706738E0,-8.400583E-2],"categories":[],"categories_nodes":[],"categories_segments":[],"categories_sizes":[],"default_left":[0,0,0,1,0,1,1,1,1,1,1,1,1,1,1,0,0,0,0,0,0,0,0,0,0,0,0,0,0,0,0],"id":42,"left_children":[1,3,5,7,9,11,13,15,17,19,21,23,25,27,29,-1,-1,-1,-1,-1,-1,-1,-1,-1,-1,-1,-1,-1,-1,-1,-1],"loss_changes":[8.703013E2,9.8641235E1,1.2316895E0,1.5733841E1,2.7428284E1,1.3706055E0,2.2390137E0,1.1445602E1,6.571471E0,8.57164E0,5.008423E0,6.168213E-1,1.0235373E0,2.2320778E0,3.3569336E-1,0E0,0E0,0E0,0E0,0E0,0E0,0E0,0E0,0E0,0E0,0E0,0E0,0E0,0E0,0E0,0E0],"parents":[2147483647,0,0,1,1,2,2,3,3,4,4,5,5,6,6,7,7,8,8,9,9,10,10,11,11,12,12,13,13,14,14],"right_children":[2,4,6,8,10,12,14,16,18,20,22,24,26,28,30,-1,-1,-1,-1,-1,-1,-1,-1,-1,-1,-1,-1,-1,-1,-1,-1],"split_conditions":[3.25E0,1.75E0,5.75E0,3.95E1,2.25E0,4.108402E0,5.882353E-3,4.5452195E-1,3.1730304E0,2.5E0,2.5E0,5.5E0,6.1E1,1.4E1,6.666667E-1,-1.1787366E-2,-5.231462E-3,-6.816583E-3,3.9111258E-4,-1.6068835E-2,-8.439093E-3,-2.348923E-2,-1.5991732E-2,-3.4549333E-2,-3.682984E-3,-1.4790847E-2,2.4931268E-3,1.0319629E-2,-1.3755669E-2,-3.8022645E-2,-2.983284E-3],"split_indices":[3,3,3,5,3,8,14,13,8,7,7,12,10,1,11,0,0,0,0,0,0,0,0,0,0,0,0,0,0,0,0],"split_type":[0,0,0,0,0,0,0,0,0,0,0,0,0,0,0,0,0,0,0,0,0,0,0,0,0,0,0,0,0,0,0],"sum_hessian":[8.765894E3,4.9942637E3,3.7716296E3,2.3498186E3,2.6444448E3,1.9694346E3,1.8021951E3,1.7200251E3,6.2979346E2,1.4404574E3,1.2039875E3,1.9573641E3,1.2070445E1,5.9446073E0,1.7962504E3,1.2333462E3,4.8667896E2,3.2376114E2,3.060323E2,1.1868429E3,2.5361444E2,9.923581E2,2.1162944E2,1.9546006E3,2.7636135E0,8.867442E0,3.2030022E0,1.081481E0,4.8631263E0,1.7945393E3,1.7110759E0],"tree_param":{"num_deleted":"0","num_feature":"15","num_nodes":"31","size_leaf_vector":"0"}},{"base_weights":[-6.4331603E-1,-3.7311307E-1,-1.0136719E0,-2.236883E-1,-5.039437E-1,-3.2100224E-1,-1.0149815E0,-2.5975922E-1,-4.2649385E-2,-4.0465716E-1,-6.1647487E-1,-4.920393E-1,2.2991525E-1,-9.6605825E-1,-1.0630976E0,-2.7957693E-1,9.849374E-2,-1.2488849E-2,-5.996416E-1,-5.2499133E-1,-3.4641284E-1,-6.519954E-1,-4.3380883E-1,-9.6888393E-1,-3.175409E-1,-1.063686E0,-8.349615E-2],"categories":[],"categories_nodes":[],"categories_segments":[],"categories_sizes":[],"default_left":[0,0,1,1,0,1,0,1,1,1,1,0,0,1,1,0,0,0,0,0,0,0,0,0,0,0,0],"id":43,"left_children":[1,3,5,7,9,11,13,15,17,19,21,-1,-1,23,25,-1,-1,-1,-1,-1,-1,-1,-1,-1,-1,-1,-1],"loss_changes":[8.6133374E2,9.698627E1,7.949219E-1,1.5264198E1,2.7830261E1,2.5773516E0,6.401367E-1,1.4116577E1,6.65738E0,8.672333E0,5.8269653E0,0E0,0E0,1.0843506E0,3.272705E-1,0E0,0E0,0E0,0E0,0E0,0E0,0E0,0E0,0E0,0E0,0E0,0E0],"parents":[2147483647,0,0,1,1,2,2,3,3,4,4,5,5,6,6,7,7,8,8,9,9,10,10,13,13,14,14],"right_children":[2,4,6,8,10,12,14,16,18,20,22,-1,-1,24,26,-1,-1,-1,-1,-1,-1,-1,-1,-1,-1,-1,-1],"split_conditions":[3.75E0,1.75E0,5.882353E-3,2.5E0,2.25E0,3.704819E-2,5.75E0,3.5931711E0,6.00885E-1,1.06203005E-1,2.5E0,-1.7473703E-2,8.164939E-3,4.108402E0,6.666667E-1,-9.9285655E-3,3.4977905E-3,-4.4351426E-4,-2.1294964E-2,-1.8643923E-2,-1.2302097E-2,-2.3154195E-2,-1.5405775E-2,-3.4407802E-2,-1.1276773E-2,-3.777449E-2,-2.965184E-3],"split_indices":[3,3,14,7,3,11,3,8,14,13,7,0,0,8,11,0,0,0,0,0,0,0,0,0,0,0,0],"split_type":[0,0,0,0,0,0,0,0,0,0,0,0,0,0,0,0,0,0,0,0,0,0,0,0,0,0,0],"sum_hessian":[8.628585E3,4.99777E3,3.6308152E3,2.3428218E3,2.654948E3,1.0424969E1,3.6203904E3,1.9507931E3,3.9202872E2,1.4292611E3,1.2256869E3,8.582544E0,1.8424243E0,1.8755306E3,1.7448597E3,1.8501372E3,1.00655846E2,3.79352E2,1.2676722E1,4.4605594E2,9.832052E2,1.0095996E3,2.1608731E2,1.8636107E3,1.1919931E1,1.7431523E3,1.707404E0],"tree_param":{"num_deleted":"0","num_feature":"15","num_nodes":"27","size_leaf_vector":"0"}},{"base_weights":[-6.306537E-1,-3.6260393E-1,-1.0056913E0,-2.1647601E-1,-4.9154475E-1,-3.1526792E-1,-1.0070249E0,-1.01651266E-1,-2.7339396E-1,-3.9348865E-1,-6.034198E-1,-4.8599866E-1,2.281187E-1,-9.571157E-1,-1.0562567E0,-1.3824621E-1,1.10544235E-1,-3.709399E-1,-1.9799711E-1,-5.045511E-1,-3.3195058E-1,-6.387732E-1,-4.2276505E-1,-9.599797E-1,-3.1228855E-1,-1.0568563E0,-8.299031E-2],"categories":[],"categories_nodes":[],"categories_segments":[],"categories_sizes":[],"default_left":[0,0,1,0,0,1,0,1,1,1,1,0,0,1,1,0,0,0,0,0,0,0,0,0,0,0,0],"id":44,"left_children":[1,3,5,7,9,11,13,15,17,19,21,-1,-1,23,25,-1,-1,-1,-1,-1,-1,-1,-1,-1,-1,-1,-1],"loss_changes":[8.519414E2,9.2835815E1,8.1689453E-1,1.5103889E1,2.7074158E1,2.5247474E0,8.955078E-1,6.244293E0,1.09262085E1,8.458267E0,5.689789E0,0E0,0E0,1.0820312E0,3.187256E-1,0E0,0E0,0E0,0E0,0E0,0E0,0E0,0E0,0E0,0E0,0E0,0E0],"parents":[2147483647,0,0,1,1,2,2,3,3,4,4,5,5,6,6,7,7,8,8,9,9,10,10,13,13,14,14],"right_children":[2,4,6,8,10,12,14,16,18,20,22,-1,-1,24,26,-1,-1,-1,-1,-1,-1,-1,-1,-1,-1,-1,-1],"split_conditions":[3.75E0,1.75E0,5.882353E-3,2.5E-1,2.25E0,3.704819E-2,5.75E0,1.385E2,2.717248E-1,2.3979166E-1,2.5E0,-1.7259182E-2,8.101138E-3,4.108402E0,6.666667E-1,-4.9095126E-3,3.9257375E-3,-1.3173122E-2,-7.0314356E-3,-1.7918034E-2,-1.1788501E-2,-2.2684637E-2,-1.5013579E-2,-3.4091588E-2,-1.1090247E-2,-3.7531946E-2,-2.9472199E-3],"split_indices":[3,3,14,3,3,11,3,10,14,14,7,0,0,8,11,0,0,0,0,0,0,0,0,0,0,0,0],"split_type":[0,0,0,0,0,0,0,0,0,0,0,0,0,0,0,0,0,0,0,0,0,0,0,0,0,0,0],"sum_hessian":[8.494813E3,4.9628535E3,3.5319595E3,2.3360398E3,2.626814E3,1.032954E1,3.52163E3,7.812987E2,1.554741E3,1.418381E3,1.208433E3,8.47813E0,1.85141E0,1.8268656E3,1.6947643E3,6.6866284E2,1.1263591E2,6.646658E2,8.9007526E2,4.8595834E2,9.3242267E2,9.9433795E2,2.1409503E2,1.8150444E3,1.1821141E1,1.6930605E3,1.7037586E0],"tree_param":{"num_deleted":"0","num_feature":"15","num_nodes":"27","size_leaf_vector":"0"}},{"base_weights":[-6.1814564E-1,-3.5234502E-1,-9.97815E-1,-2.7533486E-1,-5.9054285E-1,-9.4782716E-1,-1.0471594E0,-9.816473E-2,-3.2172298E-1,-6.2571746E-1,-4.119396E-1,-9.5072025E-1,-3.0711943E-1,-1.5502274E-1,-1.0495604E0,-1.3359557E-1,1.0675888E-1,-4.4357404E-1,-2.6461512E-1,-6.857524E-1,-5.1186836E-1,-1.738296E-1,-4.7486448E-1,-9.516205E-1,-8.632413E-2,-4.0274373E-1,5.6414492E-2,2.8959683E-1,-3.7366307E-1,-1.0501715E0,-8.248823E-2],"categories":[],"categories_nodes":[],"categories_segments":[],"categories_sizes":[],"default_left":[0,0,0,0,1,1,1,1,1,1,1,1,1,1,1,0,0,0,0,0,0,0,0,0,0,0,0,0,0,0,0],"id":45,"left_children":[1,3,5,7,9,11,13,15,17,19,21,23,25,27,29,-1,-1,-1,-1,-1,-1,-1,-1,-1,-1,-1,-1,-1,-1,-1,-1],"loss_changes":[8.4217236E2,8.930054E1,8.586426E-1,3.0533722E1,5.551758E0,1.0749512E0,2.3028564E0,5.831832E0,1.9725006E1,4.0470276E0,2.659027E0,7.5305176E-1,8.497523E-1,2.1427345E0,3.1115723E-1,0E0,0E0,0E0,0E0,0E0,0E0,0E0,0E0,0E0,0E0,0E0,0E0,0E0,0E0,0E0,0E0],"parents":[2147483647,0,0,1,1,2,2,3,3,4,4,5,5,6,6,7,7,8,8,9,9,10,10,11,11,12,12,13,13,14,14],"right_children":[2,4,6,8,10,12,14,16,18,20,22,24,26,28,30,-1,-1,-1,-1,-1,-1,-1,-1,-1,-1,-1,-1,-1,-1,-1,-1],"split_conditions":[3.75E0,2.25E0,5.75E0,2.5E-1,2.5E0,4.108402E0,5.882353E-3,1.385E2,2.3420878E-1,1.5E0,5E-1,5.5E0,6.1E1,1.4E1,6.666667E-1,-4.7443556E-3,3.7913087E-3,-1.5752565E-2,-9.397229E-3,-2.4353001E-2,-1.817789E-2,-6.1731795E-3,-1.6863776E-2,-3.3794727E-2,-3.0656133E-3,-1.4302566E-2,2.0034376E-3,1.02844E-2,-1.326983E-2,-3.729455E-2,-2.9293897E-3],"split_indices":[3,3,3,3,7,8,14,10,14,9,2,12,10,1,11,0,0,0,0,0,0,0,0,0,0,0,0,0,0,0,0],"split_type":[0,0,0,0,0,0,0,0,0,0,0,0,0,0,0,0,0,0,0,0,0,0,0,0,0,0,0,0,0,0,0],"sum_hessian":[8.364359E3,4.928691E3,3.4356687E3,3.737068E3,1.1916226E3,1.7839281E3,1.6517406E3,7.804116E2,2.9566565E3,9.7946674E2,2.1215585E2,1.7722037E3,1.1724454E1,5.7869E0,1.6459536E3,6.676533E2,1.1275832E2,9.2689166E2,2.0297649E3,6.159977E2,3.6346906E2,5.039638E1,1.6175948E2,1.7695846E3,2.6191368E0,8.625834E0,3.0986192E0,1.0846887E0,4.7022114E0,1.6442535E3,1.7001394E0],"tree_param":{"num_deleted":"0","num_feature":"15","num_nodes":"31","size_leaf_vector":"0"}},{"base_weights":[-6.057552E-1,-3.4230822E-1,-9.9002916E-1,-2.0149213E-1,-4.683124E-1,-9.390201E-1,-1.0405408E0,-1.9046603E-1,-8.4697664E-1,-3.7351632E-1,-5.7798904E-1,-9.4195044E-1,-3.0248126E-1,-1.5166043E-1,-1.0429968E0,-2.1584977E-1,1.474234E-1,6.3954624E-3,-9.2978424E-1,-4.1018483E-1,-1.9602087E-1,-6.1294234E-1,-4.0160725E-1,-9.4286275E-1,-8.5596435E-2,-3.9746276E-1,5.581549E-2,2.881024E-1,-3.6995327E-1,-1.0436198E0,-8.1989884E-2],"categories":[],"categories_nodes":[],"categories_segments":[],"categories_sizes":[],"default_left":[0,0,0,1,0,1,1,1,1,1,1,1,1,1,1,0,0,0,0,0,0,0,0,0,0,0,0,0,0,0,0],"id":46,"left_children":[1,3,5,7,9,11,13,15,17,19,21,23,25,27,29,-1,-1,-1,-1,-1,-1,-1,-1,-1,-1,-1,-1,-1,-1,-1,-1],"loss_changes":[8.321284E2,8.6279724E1,1.1142578E0,1.5336182E1,2.5184875E1,1.0640869E0,2.30188E0,1.9971413E1,2.6523705E0,8.537231E0,5.3999634E0,7.3376465E-1,8.284584E-1,2.1103022E0,3.034668E-1,0E0,0E0,0E0,0E0,0E0,0E0,0E0,0E0,0E0,0E0,0E0,0E0,0E0,0E0,0E0,0E0],"parents":[2147483647,0,0,1,1,2,2,3,3,4,4,5,5,6,6,7,7,8,8,9,9,10,10,11,11,12,12,13,13,14,14],"right_children":[2,4,6,8,10,12,14,16,18,20,22,24,26,28,30,-1,-1,-1,-1,-1,-1,-1,-1,-1,-1,-1,-1,-1,-1,-1,-1],"split_conditions":[3.75E0,1.75E0,5.75E0,6.4115644E-1,2.25E0,4.108402E0,5.882353E-3,2.5E0,2.5833335E0,2.5E0,2.5E0,5.5E0,6.1E1,1.4E1,6.666667E-1,-7.665434E-3,5.2354205E-3,2.2712091E-4,-3.301926E-2,-1.456682E-2,-6.961254E-3,-2.176731E-2,-1.4262206E-2,-3.3483714E-2,-3.0397708E-3,-1.4115023E-2,1.9821655E-3,1.0231328E-2,-1.3138084E-2,-3.706188E-2,-2.911692E-3],"split_indices":[3,3,3,14,3,8,14,9,4,7,7,12,10,1,11,0,0,0,0,0,0,0,0,0,0,0,0,0,0,0,0],"split_type":[0,0,0,0,0,0,0,0,0,0,0,0,0,0,0,0,0,0,0,0,0,0,0,0,0,0,0,0,0,0,0],"sum_hessian":[8.237762E3,4.8958525E3,3.341909E3,2.321477E3,2.5743755E3,1.7377448E3,1.6041642E3,2.2922827E3,2.9194424E1,1.3990408E3,1.1753347E3,1.7261078E3,1.1637031E1,5.7499957E0,1.5984142E3,2.1346936E3,1.5758916E2,3.2101808E0,2.5984241E1,1.1511436E3,2.4789728E2,9.6505273E2,2.1028198E2,1.7234946E3,2.613104E0,8.533905E0,3.1031258E0,1.0913768E0,4.658619E0,1.5967177E3,1.6965463E0],"tree_param":{"num_deleted":"0","num_feature":"15","num_nodes":"31","size_leaf_vector":"0"}},{"base_weights":[-5.9352714E-1,-3.325328E-1,-9.82325E-1,-2.5860983E-1,-5.6545746E-1,-9.302695E-1,-1.0340415E0,-8.805267E-2,-3.0359322E-1,-6.3064903E-1,-4.6309993E-1,-9.332375E-1,-2.9792133E-1,-1.4836219E-1,-1.0365541E0,-1.4331248E-1,4.4458892E-2,-4.2337352E-1,-2.4772826E-1,-6.3623655E-1,-2.3809178E-2,-4.771878E-1,-9.807499E-2,-9.341619E-1,-8.487574E-2,-3.9225736E-1,5.5222478E-2,2.8661E-1,-3.6629483E-1,-1.0371895E0,-8.1495285E-2],"categories":[],"categories_nodes":[],"categories_segments":[],"categories_sizes":[],"default_left":[0,0,0,0,1,1,1,1,1,1,1,1,1,1,1,0,0,0,0,0,0,0,0,0,0,0,0,0,0,0,0],"id":47,"left_children":[1,3,5,7,9,11,13,15,17,19,21,23,25,27,29,-1,-1,-1,-1,-1,-1,-1,-1,-1,-1,-1,-1,-1,-1,-1,-1],"loss_changes":[8.2166284E2,8.275299E1,1.3725586E0,2.8273636E1,5.5411987E0,1.0527344E0,2.3007812E0,5.80109E0,1.8827179E1,2.2289429E0,2.1240845E0,7.145996E-1,8.077136E-1,2.078384E0,2.9638672E-1,0E0,0E0,0E0,0E0,0E0,0E0,0E0,0E0,0E0,0E0,0E0,0E0,0E0,0E0,0E0,0E0],"parents":[2147483647,0,0,1,1,2,2,3,3,4,4,5,5,6,6,7,7,8,8,9,9,10,10,11,11,12,12,13,13,14,14],"right_children":[2,4,6,8,10,12,14,16,18,20,22,24,26,28,30,-1,-1,-1,-1,-1,-1,-1,-1,-1,-1,-1,-1,-1,-1,-1,-1],"split_conditions":[3.75E0,2.25E0,5.75E0,2.5E-1,3.113997E-1,4.108402E0,5.882353E-3,3.95E1,2.3420878E-1,7.571016E-1,3.5E0,5.5E0,6.1E1,1.4E1,6.666667E-1,-5.0894306E-3,1.5788607E-3,-1.5035188E-2,-8.797529E-3,-2.2594554E-2,-8.4553106E-4,-1.6946284E-2,-3.4829194E-3,-3.3174723E-2,-3.0141769E-3,-1.3930165E-2,1.961106E-3,1.0178329E-2,-1.3008162E-2,-3.6833525E-2,-2.8941273E-3],"split_indices":[3,3,3,3,14,8,14,5,14,13,7,12,10,1,11,0,0,0,0,0,0,0,0,0,0,0,0,0,0,0,0],"split_type":[0,0,0,0,0,0,0,0,0,0,0,0,0,0,0,0,0,0,0,0,0,0,0,0,0,0,0,0,0,0,0],"sum_hessian":[8.1143433E3,4.8636904E3,3.2506528E3,3.7042961E3,1.1593943E3,1.6928074E3,1.5578455E3,7.7783563E2,2.9264604E3,6.84032E2,4.7536224E2,1.681256E3,1.155136E1,5.7136903E0,1.5521317E3,5.484815E2,2.293541E2,9.146821E2,2.0117784E3,6.7742194E2,6.6100674E0,4.554219E2,1.9940334E1,1.6786489E3,2.607131E0,8.443771E0,3.1075888E0,1.0980349E0,4.6156554E0,1.5504388E3,1.6929792E0],"tree_param":{"num_deleted":"0","num_feature":"15","num_nodes":"31","size_leaf_vector":"0"}},{"base_weights":[-5.814109E-1,-3.2295227E-1,-9.746922E-1,-1.8747656E-1,-4.4585738E-1,-9.21566E-1,-1.0276508E0,-1.766374E-1,-8.27018E-1,-3.5441107E-1,-5.5311835E-1,-9.24572E-1,-2.9343814E-1,-1.4512692E-1,-1.0302218E0,-2.5129148E-1,-6.634546E-2,8.423821E-3,-9.0929246E-1,-4.749438E-1,-2.9692227E-1,-7.044736E-1,-5.05652E-1,-9.255087E-1,-8.416195E-2,-3.8712627E-1,5.4635428E-2,2.851198E-1,-3.6268675E-1,-1.0308698E0,-8.100433E-2],"categories":[],"categories_nodes":[],"categories_segments":[],"categories_sizes":[],"default_left":[0,0,0,1,0,1,1,1,1,1,1,1,1,1,1,0,0,0,0,0,0,0,0,0,0,0,0,0,0,0,0],"id":48,"left_children":[1,3,5,7,9,11,13,15,17,19,21,23,25,27,29,-1,-1,-1,-1,-1,-1,-1,-1,-1,-1,-1,-1,-1,-1,-1,-1],"loss_changes":[8.109675E2,7.995001E1,1.6328125E0,1.4928581E1,2.3330322E1,1.0413818E0,2.2998047E0,1.8700996E1,2.5679874E0,8.535278E0,5.5336304E0,6.960449E-1,7.8750384E-1,2.0469725E0,2.894287E-1,0E0,0E0,0E0,0E0,0E0,0E0,0E0,0E0,0E0,0E0,0E0,0E0,0E0,0E0,0E0,0E0],"parents":[2147483647,0,0,1,1,2,2,3,3,4,4,5,5,6,6,7,7,8,8,9,9,10,10,11,11,12,12,13,13,14,14],"right_children":[2,4,6,8,10,12,14,16,18,20,22,24,26,28,30,-1,-1,-1,-1,-1,-1,-1,-1,-1,-1,-1,-1,-1,-1,-1,-1],"split_conditions":[3.75E0,1.75E0,5.75E0,6.4115644E-1,2.25E0,4.108402E0,5.882353E-3,1.5E0,2.5833335E0,1.06203005E-1,1.8225524E-1,5.5E0,6.1E1,1.4E1,6.666667E-1,-8.924069E-3,-2.3561143E-3,2.9915365E-4,-3.229154E-2,-1.6866593E-2,-1.0544547E-2,-2.5017845E-2,-1.7957129E-2,-3.2867424E-2,-2.9888283E-3,-1.3747945E-2,1.9402581E-3,1.0125408E-2,-1.2880029E-2,-3.6609095E-2,-2.8766922E-3],"split_indices":[3,3,3,14,3,8,14,9,4,13,14,12,10,1,11,0,0,0,0,0,0,0,0,0,0,0,0,0,0,0,0],"split_type":[0,0,0,0,0,0,0,0,0,0,0,0,0,0,0,0,0,0,0,0,0,0,0,0,0,0,0,0,0,0,0],"sum_hessian":[7.9944067E3,4.8325415E3,3.1618652E3,2.3079558E3,2.5245857E3,1.6490975E3,1.5127677E3,2.279145E3,2.881087E1,1.3806282E3,1.1439575E3,1.6376301E3,1.1467407E1,5.677975E0,1.5070897E3,1.3532958E3,9.2584924E2,3.2019498E0,2.560892E1,4.278104E2,9.528178E2,2.4768742E2,8.9627E2,1.6350289E3,2.601216E0,8.3554E0,3.1120071E0,1.1046621E0,4.573313E0,1.5054003E3,1.6894373E0],"tree_param":{"num_deleted":"0","num_feature":"15","num_nodes":"31","size_leaf_vector":"0"}},{"base_weights":[-5.69488E-1,-3.136853E-1,-9.67121E-1,-2.428546E-1,-5.409335E-1,-9.129012E-1,-1.0213581E0,-7.8755915E-2,-2.8643724E-1,-5.7675916E-1,-3.629373E-1,-9.159454E-1,-2.8903034E-1,-1.419535E-1,-1.0239893E0,-1.4317173E-1,3.3516105E-2,-4.0352166E-1,-2.3211907E-1,-6.3918674E-1,-4.6015874E-1,-1.296971E-1,-4.2692283E-1,-9.168944E-1,-8.345501E-2,-3.820683E-1,5.4054283E-2,2.8363183E-1,-3.5912812E-1,-1.0246503E0,-8.051703E-2],"categories":[],"categories_nodes":[],"categories_segments":[],"categories_sizes":[],"default_left":[0,0,0,0,1,1,1,1,1,1,1,1,1,1,1,0,0,0,0,0,0,0,0,0,0,0,0,0,0,0,0],"id":49,"left_children":[1,3,5,7,9,11,13,15,17,19,21,23,25,27,29,-1,-1,-1,-1,-1,-1,-1,-1,-1,-1,-1,-1,-1,-1,-1,-1],"loss_changes":[7.9972656E2,7.640903E1,1.8945312E0,2.6151321E1,5.6380615E0,1.029419E0,2.298462E0,5.699986E0,1.7757889E1,4.5300293E0,2.7259502E0,6.776123E-1,7.6781523E-1,2.0160584E0,2.8271484E-1,0E0,0E0,0E0,0E0,0E0,0E0,0E0,0E0,0E0,0E0,0E0,0E0,0E0,0E0,0E0,0E0],"parents":[2147483647,0,0,1,1,2,2,3,3,4,4,5,5,6,6,7,7,8,8,9,9,10,10,11,11,12,12,13,13,14,14],"right_children":[2,4,6,8,10,12,14,16,18,20,22,24,26,28,30,-1,-1,-1,-1,-1,-1,-1,-1,-1,-1,-1,-1,-1,-1,-1,-1],"split_conditions":[3.75E0,2.25E0,5.75E0,2.5E-1,2.5E0,4.108402E0,5.882353E-3,3.6453468E-1,2.3420878E-1,1.5E0,5E-1,5.5E0,6.1E1,1.4E1,6.666667E-1,-5.0844317E-3,1.1902514E-3,-1.4330192E-2,-8.243202E-3,-2.2699324E-2,-1.6341534E-2,-4.60591E-3,-1.5161234E-2,-3.2561503E-2,-2.9637227E-3,-1.3568323E-2,1.91962E-3,1.0072567E-2,-1.2753652E-2,-3.6388222E-2,-2.8593868E-3],"split_indices":[3,3,3,3,7,8,14,13,14,9,2,12,10,1,11,0,0,0,0,0,0,0,0,0,0,0,0,0,0,0,0],"split_type":[0,0,0,0,0,0,0,0,0,0,0,0,0,0,0,0,0,0,0,0,0,0,0,0,0,0,0,0,0,0,0],"sum_hessian":[7.877629E3,4.80212E3,3.0755088E3,3.6731528E3,1.1289673E3,1.6065955E3,1.4689132E3,7.753554E2,2.8977974E3,9.2546423E2,2.0350307E2,1.5952103E3,1.1385138E1,5.64284E0,1.4632704E3,4.9133563E2,2.8401978E2,9.026521E2,1.9951453E3,5.802984E2,3.4516586E2,4.8821888E1,1.5468118E2,1.5926149E3,2.5953598E0,8.268755E0,3.1163821E0,1.1112579E0,4.531582E0,1.4615845E3,1.6859208E0],"tree_param":{"num_deleted":"0","num_feature":"15","num_nodes":"31","size_leaf_vector":"0"}},{"base_weights":[-5.5767095E-1,-3.045968E-1,-9.5960176E-1,-1.7438354E-1,-4.243061E-1,-9.042667E-1,-1.0151536E0,-2.3420994E-1,-6.6813946E-2,-3.3619404E-1,-5.2905E-1,-9.073493E-1,-2.8469655E-1,-1.388409E-1,-1.0178467E0,-2.8527215E-1,-1.0211453E-1,-2.0477785E-1,3.7692212E-3,-3.7296912E-1,-1.6043535E-1,-6.815927E-1,-4.8159122E-1,-9.083106E-1,-8.27548E-2,-3.770823E-1,5.347901E-2,2.821463E-1,-3.5561806E-1,-1.0185211E0,-8.0033325E-2],"categories":[],"categories_nodes":[],"categories_segments":[],"categories_sizes":[],"default_left":[0,0,0,1,0,1,1,1,1,1,1,1,1,1,1,0,0,0,0,0,0,0,0,0,0,0,0,0,0,0,0],"id":50,"left_children":[1,3,5,7,9,11,13,15,17,19,21,23,25,27,29,-1,-1,-1,-1,-1,-1,-1,-1,-1,-1,-1,-1,-1,-1,-1,-1],"loss_changes":[7.8829224E2,7.394519E1,2.1582031E0,1.4699074E1,2.1568695E1,1.0169678E0,2.296875E0,9.736366E0,8.125011E0,8.400513E0,5.598053E0,6.5979004E-1,7.48633E-1,1.9856346E0,2.7648926E-1,0E0,0E0,0E0,0E0,0E0,0E0,0E0,0E0,0E0,0E0,0E0,0E0,0E0,0E0,0E0,0E0],"parents":[2147483647,0,0,1,1,2,2,3,3,4,4,5,5,6,6,7,7,8,8,9,9,10,10,11,11,12,12,13,13,14,14],"right_children":[2,4,6,8,10,12,14,16,18,20,22,24,26,28,30,-1,-1,-1,-1,-1,-1,-1,-1,-1,-1,-1,-1,-1,-1,-1,-1],"split_conditions":[3.75E0,1.75E0,5.75E0,3.75E1,2.25E0,4.108402E0,5.882353E-3,4.5452195E-1,9.4788864E-2,2.5E0,1.8225524E-1,5.5E0,6.1E1,1.4E1,6.666667E-1,-1.0130819E-2,-3.6263748E-3,-7.272239E-3,1.3385568E-4,-1.3245185E-2,-5.6975116E-3,-2.4205279E-2,-1.7102662E-2,-3.225667E-2,-2.9388561E-3,-1.3391255E-2,1.8991904E-3,1.0019811E-2,-1.26290005E-2,-3.6170557E-2,-2.842209E-3],"split_indices":[3,3,3,5,3,8,14,13,13,7,14,12,10,1,11,0,0,0,0,0,0,0,0,0,0,0,0,0,0,0,0],"split_type":[0,0,0,0,0,0,0,0,0,0,0,0,0,0,0,0,0,0,0,0,0,0,0,0,0,0,0,0,0,0,0],"sum_hessian":[7.764173E3,4.7726284E3,2.9915447E3,2.2950713E3,2.477557E3,1.565281E3,1.4262637E3,1.469006E3,8.260653E2,1.3631978E3,1.1143593E3,1.5539764E3,1.1304517E1,5.6082783E0,1.4206554E3,1.053031E3,4.159749E2,2.7463364E2,5.514317E2,1.1201835E3,2.4301419E2,2.4003902E2,8.743202E2,1.5513868E3,2.5895603E0,8.183803E0,3.120714E0,1.1178217E0,4.490456E0,1.418973E3,1.6824296E0],"tree_param":{"num_deleted":"0","num_feature":"15","num_nodes":"31","size_leaf_vector":"0"}},{"base_weights":[-5.460065E-1,-2.957439E-1,-9.521257E-1,-1.6868024E-1,-4.1338074E-1,-8.9565486E-1,-1.009028E0,-1.5799657E-1,-8.0493546E-1,-3.2658187E-1,-5.1719916E-1,-9.10865E-1,-6.528804E-1,-1.3578808E-1,-1.0117846E0,-1.8245962E-1,1.635527E-1,1.2751141E-2,-8.871364E-1,-6.2518585E-1,-3.0197078E-1,-5.533362E-1,-3.3953652E-1,-9.117565E-1,-8.598391E-2,-6.72474E-1,-1.6934015E-1,2.8066322E-1,-3.521557E-1,-1.0124726E0,-7.9553194E-2],"categories":[],"categories_nodes":[],"categories_segments":[],"categories_sizes":[],"default_left":[0,0,0,1,0,1,1,1,1,1,1,1,1,1,1,0,0,0,0,0,0,0,0,0,0,0,0,0,0,0,0],"id":51,"left_children":[1,3,5,7,9,11,13,15,17,19,21,23,25,27,29,-1,-1,-1,-1,-1,-1,-1,-1,-1,-1,-1,-1,-1,-1,-1,-1],"loss_changes":[7.7650635E2,7.0484924E1,2.423584E0,1.4636902E1,2.0885956E1,1.0856934E0,2.295288E0,1.8076267E1,2.510603E0,8.555206E0,5.6676025E0,4.432373E-1,2.3754501E-1,1.9556924E0,2.701416E-1,0E0,0E0,0E0,0E0,0E0,0E0,0E0,0E0,0E0,0E0,0E0,0E0,0E0,0E0,0E0,0E0],"parents":[2147483647,0,0,1,1,2,2,3,3,4,4,5,5,6,6,7,7,8,8,9,9,10,10,11,11,